svm_type c_svc
kernel_type rbf
gamma 2.000000
nr_class 2
total_sv 350
rho -2.347652
label 1 2
nr_sv 264 86
SV
-5.924800e+000 1:0.292327 2:1.000000 3:1.000000 4:1.000000 5:0.578820 6:0.645222 7:0.361507 8:1.000000 9:1.000000 10:1.000000 11:0.633500 12:1.000000 13:1.000000 14:0.022419 15:1.000000 16:1.000000 17:1.000000 18:1.000000
2.416375e+000 1:0.619550 2:1.000000 3:1.000000 4:1.000000 5:0.482083 6:0.527147 7:0.568618 8:1.000000 9:1.000000 10:1.000000 11:0.506147 12:1.000000 13:1.000000 14:0.023446 15:1.000000 16:1.000000 17:1.000000 18:1.000000
-3.355023e+000 1:0.603974 2:1.000000 3:1.000000 4:1.000000 5:0.242893 6:0.914613 7:0.736541 8:1.000000 9:1.000000 10:1.000000 11:0.622340 12:1.000000 13:1.000000 14:0.021879 15:1.000000 16:1.000000 17:1.000000 18:1.000000
-2.530940e+000 1:0.847194 2:1.000000 3:1.000000 4:1.000000 5:0.426987 6:0.262093 7:0.059837 8:1.000000 9:1.000000 10:1.000000 11:0.610102 12:1.000000 13:1.000000 14:0.018894 15:1.000000 16:1.000000 17:1.000000 18:1.000000
3.561728e+000 1:0.653769 2:1.000000 3:1.000000 4:1.000000 5:0.341805 6:0.588738 7:0.406280 8:1.000000 9:1.000000 10:1.000000 11:0.765194 12:1.000000 13:1.000000 14:0.020327 15:1.000000 16:1.000000 17:1.000000 18:1.000000
-2.474103e+000 1:0.487399 2:1.000000 3:1.000000 4:1.000000 5:0.236460 6:0.525760 7:0.471443 8:1.000000 9:1.000000 10:1.000000 11:0.471050 12:1.000000 13:1.000000 14:0.531892 15:1.000000 16:1.000000 17:1.000000 18:1.000000
2.107278e+000 1:0.459419 2:1.000000 3:1.000000 4:1.000000 5:0.353096 6:0.709372 7:0.610860 8:1.000000 9:1.000000 10:1.000000 11:0.324446 12:1.000000 13:1.000000 14:0.039840 15:1.000000 16:1.000000 17:1.000000 18:1.000000
-2.606854e+000 1:0.631575 2:1.000000 3:1.000000 4:1.000000 5:0.228957 6:0.774394 7:0.583842 8:1.000000 9:1.000000 10:1.000000 11:0.618468 12:1.000000 13:1.000000 14:0.022597 15:1.000000 16:1.000000 17:1.000000 18:1.000000
2.183252e+000 1:0.619550 2:1.000000 3:1.000000 4:1.000000 5:0.411541 6:0.523230 7:0.177528 8:1.000000 9:1.000000 10:1.000000 11:0.505018 12:1.000000 13:1.000000 14:0.021461 15:1.000000 16:1.000000 17:1.000000 18:1.000000
-2.707900e+000 1:0.847194 2:1.000000 3:1.000000 4:1.000000 5:0.426987 6:0.262093 7:0.059837 8:1.000000 9:1.000000 10:1.000000 11:0.610102 12:1.000000 13:1.000000 14:0.018894 15:1.000000 16:1.000000 17:1.000000 18:1.000000
2.063865e+000 1:0.696583 2:1.000000 3:1.000000 4:1.000000 5:0.381630 6:0.472015 7:0.127417 8:1.000000 9:1.000000 10:1.000000 11:0.656452 12:1.000000 13:1.000000 14:0.027633 15:1.000000 16:1.000000 17:1.000000 18:1.000000
-2.468221e+000 1:0.343535 2:1.000000 3:1.000000 4:1.000000 5:0.567925 6:0.625285 7:0.330765 8:1.000000 9:1.000000 10:1.000000 11:0.622563 12:1.000000 13:1.000000 14:0.021953 15:1.000000 16:1.000000 17:1.000000 18:1.000000
2.211497e+000 1:0.513325 2:1.000000 3:1.000000 4:1.000000 5:0.327859 6:0.590866 7:0.515350 8:1.000000 9:1.000000 10:1.000000 11:0.808341 12:1.000000 13:1.000000 14:0.004426 15:1.000000 16:1.000000 17:1.000000 18:1.000000
-1.968779e+000 1:0.631575 2:1.000000 3:1.000000 4:1.000000 5:0.228957 6:0.774394 7:0.583842 8:1.000000 9:1.000000 10:1.000000 11:0.618468 12:1.000000 13:1.000000 14:0.022597 15:1.000000 16:1.000000 17:1.000000 18:1.000000
2.268099e+000 1:0.459419 2:1.000000 3:1.000000 4:1.000000 5:0.353096 6:0.709372 7:0.610860 8:1.000000 9:1.000000 10:1.000000 11:0.324446 12:1.000000 13:1.000000 14:0.039840 15:1.000000 16:1.000000 17:1.000000 18:1.000000
-2.055681e+000 1:0.402164 2:1.000000 3:1.000000 4:1.000000 5:0.332002 6:0.816906 7:0.434942 8:1.000000 9:1.000000 10:1.000000 11:0.528759 12:1.000000 13:1.000000 14:0.163263 15:1.000000 16:1.000000 17:1.000000 18:1.000000
1.785497e+000 1:0.506484 2:1.000000 3:1.000000 4:1.000000 5:0.179331 6:0.622656 7:0.629004 8:1.000000 9:1.000000 10:1.000000 11:0.813569 12:1.000000 13:1.000000 14:0.003499 15:1.000000 16:1.000000 17:1.000000 18:1.000000
-1.662456e+000 1:0.874132 2:1.000000 3:1.000000 4:1.000000 5:0.063609 6:0.147922 7:0.104501 8:1.000000 9:1.000000 10:1.000000 11:0.588247 12:1.000000 13:1.000000 14:0.018500 15:1.000000 16:1.000000 17:1.000000 18:1.000000
1.698533e+000 1:0.619550 2:1.000000 3:1.000000 4:1.000000 5:0.411541 6:0.523230 7:0.177528 8:1.000000 9:1.000000 10:1.000000 11:0.505018 12:1.000000 13:1.000000 14:0.021461 15:1.000000 16:1.000000 17:1.000000 18:1.000000
-2.359897e+000 1:0.349582 2:1.000000 3:1.000000 4:1.000000 5:0.320224 6:0.524425 7:0.425120 8:1.000000 9:1.000000 10:1.000000 11:0.633656 12:1.000000 13:1.000000 14:0.022325 15:1.000000 16:1.000000 17:1.000000 18:1.000000
1.716815e+000 1:0.619550 2:1.000000 3:1.000000 4:1.000000 5:0.411541 6:0.523230 7:0.177528 8:1.000000 9:1.000000 10:1.000000 11:0.505018 12:1.000000 13:1.000000 14:0.021461 15:1.000000 16:1.000000 17:1.000000 18:1.000000
-1.950671e+000 1:0.847194 2:1.000000 3:1.000000 4:1.000000 5:0.426987 6:0.262093 7:0.059837 8:1.000000 9:1.000000 10:1.000000 11:0.610102 12:1.000000 13:1.000000 14:0.018894 15:1.000000 16:1.000000 17:1.000000 18:1.000000
1.688994e+000 1:0.673566 2:1.000000 3:1.000000 4:1.000000 5:0.221163 6:0.294380 7:0.089972 8:1.000000 9:1.000000 10:1.000000 11:0.587374 12:1.000000 13:1.000000 14:0.021601 15:1.000000 16:1.000000 17:1.000000 18:1.000000
-1.831188e+000 1:0.471292 2:1.000000 3:1.000000 4:1.000000 5:0.359063 6:0.615631 7:0.247997 8:1.000000 9:1.000000 10:1.000000 11:0.576139 12:1.000000 13:1.000000 14:0.123755 15:1.000000 16:1.000000 17:1.000000 18:1.000000
1.819545e+000 1:0.551495 2:1.000000 3:1.000000 4:1.000000 5:0.421237 6:0.544944 7:0.155227 8:1.000000 9:1.000000 10:1.000000 11:0.812588 12:1.000000 13:1.000000 14:0.006104 15:1.000000 16:1.000000 17:1.000000 18:1.000000
-1.758345e+000 1:0.548751 2:1.000000 3:1.000000 4:1.000000 5:0.541874 6:0.380148 7:0.190145 8:1.000000 9:1.000000 10:1.000000 11:0.620131 12:1.000000 13:1.000000 14:0.023025 15:1.000000 16:1.000000 17:1.000000 18:1.000000
1.837668e+000 1:0.459419 2:1.000000 3:1.000000 4:1.000000 5:0.353096 6:0.709372 7:0.610860 8:1.000000 9:1.000000 10:1.000000 11:0.324446 12:1.000000 13:1.000000 14:0.039840 15:1.000000 16:1.000000 17:1.000000 18:1.000000
-2.010001e+000 1:0.661130 2:1.000000 3:1.000000 4:1.000000 5:0.186794 6:0.722428 7:0.531512 8:1.000000 9:1.000000 10:1.000000 11:0.522421 12:1.000000 13:1.000000 14:0.019264 15:1.000000 16:1.000000 17:1.000000 18:1.000000
2.082037e+000 1:0.619550 2:1.000000 3:1.000000 4:1.000000 5:0.411541 6:0.523230 7:0.177528 8:1.000000 9:1.000000 10:1.000000 11:0.505018 12:1.000000 13:1.000000 14:0.021461 15:1.000000 16:1.000000 17:1.000000 18:1.000000
-1.746322e+000 1:0.471292 2:1.000000 3:1.000000 4:1.000000 5:0.359063 6:0.615631 7:0.247997 8:1.000000 9:1.000000 10:1.000000 11:0.576139 12:1.000000 13:1.000000 14:0.123755 15:1.000000 16:1.000000 17:1.000000 18:1.000000
1.930328e+000 1:0.506484 2:1.000000 3:1.000000 4:1.000000 5:0.221371 6:0.601136 7:0.562946 8:1.000000 9:1.000000 10:1.000000 11:0.813368 12:1.000000 13:1.000000 14:0.003197 15:1.000000 16:1.000000 17:1.000000 18:1.000000
-1.660195e+000 1:0.631575 2:1.000000 3:1.000000 4:1.000000 5:0.228957 6:0.774394 7:0.583842 8:1.000000 9:1.000000 10:1.000000 11:0.618468 12:1.000000 13:1.000000 14:0.022597 15:1.000000 16:1.000000 17:1.000000 18:1.000000
1.712032e+000 1:0.459419 2:1.000000 3:1.000000 4:1.000000 5:0.353096 6:0.709372 7:0.610860 8:1.000000 9:1.000000 10:1.000000 11:0.324446 12:1.000000 13:1.000000 14:0.039840 15:1.000000 16:1.000000 17:1.000000 18:1.000000
-1.465144e+000 1:0.422819 2:1.000000 3:1.000000 4:1.000000 5:0.617524 6:0.575284 7:0.279774 8:1.000000 9:1.000000 10:1.000000 11:0.646587 12:1.000000 13:1.000000 14:0.020044 15:1.000000 16:1.000000 17:1.000000 18:1.000000
1.769416e+000 1:0.551495 2:1.000000 3:1.000000 4:1.000000 5:0.421237 6:0.544944 7:0.155227 8:1.000000 9:1.000000 10:1.000000 11:0.812588 12:1.000000 13:1.000000 14:0.006104 15:1.000000 16:1.000000 17:1.000000 18:1.000000
-1.644189e+000 1:0.847194 2:1.000000 3:1.000000 4:1.000000 5:0.426987 6:0.262093 7:0.059837 8:1.000000 9:1.000000 10:1.000000 11:0.610102 12:1.000000 13:1.000000 14:0.018894 15:1.000000 16:1.000000 17:1.000000 18:1.000000
1.460790e+000 1:0.742482 2:1.000000 3:1.000000 4:1.000000 5:0.464511 6:0.439057 7:0.119658 8:1.000000 9:1.000000 10:1.000000 11:0.634858 12:1.000000 13:1.000000 14:0.022092 15:1.000000 16:1.000000 17:1.000000 18:1.000000
-1.826251e+000 1:0.403734 2:1.000000 3:1.000000 4:1.000000 5:0.355812 6:0.571956 7:0.261414 8:1.000000 9:1.000000 10:1.000000 11:0.650922 12:1.000000 13:1.000000 14:0.019533 15:1.000000 16:1.000000 17:1.000000 18:1.000000
1.665137e+000 1:0.619550 2:1.000000 3:1.000000 4:1.000000 5:0.411541 6:0.523230 7:0.177528 8:1.000000 9:1.000000 10:1.000000 11:0.505018 12:1.000000 13:1.000000 14:0.021461 15:1.000000 16:1.000000 17:1.000000 18:1.000000
-1.647805e+000 1:0.847194 2:1.000000 3:1.000000 4:1.000000 5:0.426987 6:0.262093 7:0.059837 8:1.000000 9:1.000000 10:1.000000 11:0.610102 12:1.000000 13:1.000000 14:0.018894 15:1.000000 16:1.000000 17:1.000000 18:1.000000
1.355840e+000 1:0.703735 2:1.000000 3:1.000000 4:1.000000 5:0.321526 6:0.317780 7:0.120284 8:1.000000 9:1.000000 10:1.000000 11:0.530759 12:1.000000 13:1.000000 14:0.019305 15:1.000000 16:1.000000 17:1.000000 18:1.000000
-1.693720e+000 1:0.661130 2:1.000000 3:1.000000 4:1.000000 5:0.186794 6:0.722428 7:0.531512 8:1.000000 9:1.000000 10:1.000000 11:0.522421 12:1.000000 13:1.000000 14:0.019264 15:1.000000 16:1.000000 17:1.000000 18:1.000000
1.723472e+000 1:0.674079 2:1.000000 3:1.000000 4:1.000000 5:0.404029 6:0.718088 7:0.569239 8:1.000000 9:1.000000 10:1.000000 11:0.776781 12:1.000000 13:1.000000 14:0.081047 15:1.000000 16:1.000000 17:1.000000 18:1.000000
-1.650667e+000 1:0.422819 2:1.000000 3:1.000000 4:1.000000 5:0.617524 6:0.575284 7:0.279774 8:1.000000 9:1.000000 10:1.000000 11:0.646587 12:1.000000 13:1.000000 14:0.020044 15:1.000000 16:1.000000 17:1.000000 18:1.000000
1.513302e+000 1:0.120965 2:1.000000 3:1.000000 4:1.000000 5:0.376164 6:0.938850 7:0.541997 8:1.000000 9:1.000000 10:1.000000 11:0.565584 12:1.000000 13:1.000000 14:0.057415 15:1.000000 16:1.000000 17:1.000000 18:1.000000
-1.656218e+000 1:0.022691 2:1.000000 3:1.000000 4:1.000000 5:0.507945 6:0.999846 7:0.858490 8:1.000000 9:1.000000 10:1.000000 11:0.628886 12:1.000000 13:1.000000 14:0.029801 15:1.000000 16:1.000000 17:1.000000 18:1.000000
1.300153e+000 1:0.041776 2:1.000000 3:1.000000 4:1.000000 5:0.601351 6:1.000000 7:0.578773 8:1.000000 9:1.000000 10:1.000000 11:0.624881 12:1.000000 13:1.000000 14:0.026249 15:1.000000 16:1.000000 17:1.000000 18:1.000000
-1.267999e+000 1:0.631575 2:1.000000 3:1.000000 4:1.000000 5:0.228957 6:0.774394 7:0.583842 8:1.000000 9:1.000000 10:1.000000 11:0.618468 12:1.000000 13:1.000000 14:0.022597 15:1.000000 16:1.000000 17:1.000000 18:1.000000
1.624273e+000 1:0.638635 2:1.000000 3:1.000000 4:1.000000 5:0.256136 6:0.513136 7:0.518037 8:1.000000 9:1.000000 10:1.000000 11:0.504594 12:1.000000 13:1.000000 14:0.022127 15:1.000000 16:1.000000 17:1.000000 18:1.000000
-1.451602e+000 1:0.471292 2:1.000000 3:1.000000 4:1.000000 5:0.359063 6:0.615631 7:0.247997 8:1.000000 9:1.000000 10:1.000000 11:0.576139 12:1.000000 13:1.000000 14:0.123755 15:1.000000 16:1.000000 17:1.000000 18:1.000000
1.675247e+000 1:0.619550 2:1.000000 3:1.000000 4:1.000000 5:0.411541 6:0.523230 7:0.177528 8:1.000000 9:1.000000 10:1.000000 11:0.505018 12:1.000000 13:1.000000 14:0.021461 15:1.000000 16:1.000000 17:1.000000 18:1.000000
-1.532201e+000 1:0.847194 2:1.000000 3:1.000000 4:1.000000 5:0.426987 6:0.262093 7:0.059837 8:1.000000 9:1.000000 10:1.000000 11:0.610102 12:1.000000 13:1.000000 14:0.018894 15:1.000000 16:1.000000 17:1.000000 18:1.000000
1.313583e+000 1:0.742482 2:1.000000 3:1.000000 4:1.000000 5:0.464511 6:0.439057 7:0.119658 8:1.000000 9:1.000000 10:1.000000 11:0.634858 12:1.000000 13:1.000000 14:0.022092 15:1.000000 16:1.000000 17:1.000000 18:1.000000
-1.674810e+000 1:0.471292 2:1.000000 3:1.000000 4:1.000000 5:0.359063 6:0.615631 7:0.247997 8:1.000000 9:1.000000 10:1.000000 11:0.576139 12:1.000000 13:1.000000 14:0.123755 15:1.000000 16:1.000000 17:1.000000 18:1.000000
1.513907e+000 1:0.551495 2:1.000000 3:1.000000 4:1.000000 5:0.421237 6:0.544944 7:0.155227 8:1.000000 9:1.000000 10:1.000000 11:0.812588 12:1.000000 13:1.000000 14:0.006104 15:1.000000 16:1.000000 17:1.000000 18:1.000000
-1.429820e+000 1:0.548751 2:1.000000 3:1.000000 4:1.000000 5:0.541874 6:0.380148 7:0.190145 8:1.000000 9:1.000000 10:1.000000 11:0.620131 12:1.000000 13:1.000000 14:0.023025 15:1.000000 16:1.000000 17:1.000000 18:1.000000
1.490644e+000 1:0.619550 2:1.000000 3:1.000000 4:1.000000 5:0.411541 6:0.523230 7:0.177528 8:1.000000 9:1.000000 10:1.000000 11:0.505018 12:1.000000 13:1.000000 14:0.021461 15:1.000000 16:1.000000 17:1.000000 18:1.000000
-1.656437e+000 1:0.824162 2:1.000000 3:1.000000 4:1.000000 5:0.218867 6:0.667626 7:0.478484 8:1.000000 9:1.000000 10:1.000000 11:0.604557 12:1.000000 13:1.000000 14:0.018378 15:1.000000 16:1.000000 17:1.000000 18:1.000000
1.557782e+000 1:0.506484 2:1.000000 3:1.000000 4:1.000000 5:0.179331 6:0.622656 7:0.629004 8:1.000000 9:1.000000 10:1.000000 11:0.813569 12:1.000000 13:1.000000 14:0.003499 15:1.000000 16:1.000000 17:1.000000 18:1.000000
-1.443456e+000 1:0.403734 2:1.000000 3:1.000000 4:1.000000 5:0.355812 6:0.571956 7:0.261414 8:1.000000 9:1.000000 10:1.000000 11:0.650922 12:1.000000 13:1.000000 14:0.019533 15:1.000000 16:1.000000 17:1.000000 18:1.000000
1.604242e+000 1:0.619550 2:1.000000 3:1.000000 4:1.000000 5:0.411541 6:0.523230 7:0.177528 8:1.000000 9:1.000000 10:1.000000 11:0.505018 12:1.000000 13:1.000000 14:0.021461 15:1.000000 16:1.000000 17:1.000000 18:1.000000
-1.422668e+000 1:0.548751 2:1.000000 3:1.000000 4:1.000000 5:0.541874 6:0.380148 7:0.190145 8:1.000000 9:1.000000 10:1.000000 11:0.620131 12:1.000000 13:1.000000 14:0.023025 15:1.000000 16:1.000000 17:1.000000 18:1.000000
1.272222e+000 1:0.619550 2:1.000000 3:1.000000 4:1.000000 5:0.411541 6:0.523230 7:0.177528 8:1.000000 9:1.000000 10:1.000000 11:0.505018 12:1.000000 13:1.000000 14:0.021461 15:1.000000 16:1.000000 17:1.000000 18:1.000000
-1.452835e+000 1:0.824162 2:1.000000 3:1.000000 4:1.000000 5:0.218867 6:0.667626 7:0.478484 8:1.000000 9:1.000000 10:1.000000 11:0.604557 12:1.000000 13:1.000000 14:0.018378 15:1.000000 16:1.000000 17:1.000000 18:1.000000
1.456772e+000 1:0.674079 2:1.000000 3:1.000000 4:1.000000 5:0.404029 6:0.718088 7:0.569239 8:1.000000 9:1.000000 10:1.000000 11:0.776781 12:1.000000 13:1.000000 14:0.081047 15:1.000000 16:1.000000 17:1.000000 18:1.000000
-1.400290e+000 1:0.471292 2:1.000000 3:1.000000 4:1.000000 5:0.359063 6:0.615631 7:0.247997 8:1.000000 9:1.000000 10:1.000000 11:0.576139 12:1.000000 13:1.000000 14:0.123755 15:1.000000 16:1.000000 17:1.000000 18:1.000000
1.455111e+000 1:0.468314 2:1.000000 3:1.000000 4:1.000000 5:0.279394 6:0.628796 7:0.354567 8:1.000000 9:1.000000 10:1.000000 11:0.307613 12:1.000000 13:1.000000 14:0.190607 15:1.000000 16:1.000000 17:1.000000 18:1.000000
-1.328862e+000 1:0.648990 2:1.000000 3:1.000000 4:1.000000 5:0.215976 6:0.733253 7:0.555012 8:1.000000 9:1.000000 10:1.000000 11:0.527206 12:1.000000 13:1.000000 14:0.019586 15:1.000000 16:1.000000 17:1.000000 18:1.000000
1.304226e+000 1:0.638635 2:1.000000 3:1.000000 4:1.000000 5:0.256136 6:0.513136 7:0.518037 8:1.000000 9:1.000000 10:1.000000 11:0.504594 12:1.000000 13:1.000000 14:0.022127 15:1.000000 16:1.000000 17:1.000000 18:1.000000
-1.255868e+000 1:0.471292 2:1.000000 3:1.000000 4:1.000000 5:0.359063 6:0.615631 7:0.247997 8:1.000000 9:1.000000 10:1.000000 11:0.576139 12:1.000000 13:1.000000 14:0.123755 15:1.000000 16:1.000000 17:1.000000 18:1.000000
1.522701e+000 1:0.551495 2:1.000000 3:1.000000 4:1.000000 5:0.421237 6:0.544944 7:0.155227 8:1.000000 9:1.000000 10:1.000000 11:0.812588 12:1.000000 13:1.000000 14:0.006104 15:1.000000 16:1.000000 17:1.000000 18:1.000000
-1.415580e+000 1:0.847194 2:1.000000 3:1.000000 4:1.000000 5:0.426987 6:0.262093 7:0.059837 8:1.000000 9:1.000000 10:1.000000 11:0.610102 12:1.000000 13:1.000000 14:0.018894 15:1.000000 16:1.000000 17:1.000000 18:1.000000
1.187916e+000 1:0.703735 2:1.000000 3:1.000000 4:1.000000 5:0.321526 6:0.317780 7:0.120284 8:1.000000 9:1.000000 10:1.000000 11:0.530759 12:1.000000 13:1.000000 14:0.019305 15:1.000000 16:1.000000 17:1.000000 18:1.000000
-1.373786e+000 1:0.403734 2:1.000000 3:1.000000 4:1.000000 5:0.355812 6:0.571956 7:0.261414 8:1.000000 9:1.000000 10:1.000000 11:0.650922 12:1.000000 13:1.000000 14:0.019533 15:1.000000 16:1.000000 17:1.000000 18:1.000000
1.356881e+000 1:0.372887 2:1.000000 3:1.000000 4:1.000000 5:0.411219 6:0.747279 7:0.162477 8:1.000000 9:1.000000 10:1.000000 11:0.806044 12:1.000000 13:1.000000 14:0.006018 15:1.000000 16:1.000000 17:1.000000 18:1.000000
-1.182464e+000 1:0.403734 2:1.000000 3:1.000000 4:1.000000 5:0.355812 6:0.571956 7:0.261414 8:1.000000 9:1.000000 10:1.000000 11:0.650922 12:1.000000 13:1.000000 14:0.019533 15:1.000000 16:1.000000 17:1.000000 18:1.000000
1.332397e+000 1:0.322472 2:1.000000 3:1.000000 4:1.000000 5:0.387193 6:0.679485 7:0.403046 8:1.000000 9:1.000000 10:1.000000 11:0.685681 12:1.000000 13:1.000000 14:0.571479 15:1.000000 16:1.000000 17:1.000000 18:1.000000
-9.590069e-001 1:0.022691 2:1.000000 3:1.000000 4:1.000000 5:0.507945 6:0.999846 7:0.858490 8:1.000000 9:1.000000 10:1.000000 11:0.628886 12:1.000000 13:1.000000 14:0.029801 15:1.000000 16:1.000000 17:1.000000 18:1.000000
1.374829e+000 1:0.120965 2:1.000000 3:1.000000 4:1.000000 5:0.376164 6:0.938850 7:0.541997 8:1.000000 9:1.000000 10:1.000000 11:0.565584 12:1.000000 13:1.000000 14:0.057415 15:1.000000 16:1.000000 17:1.000000 18:1.000000
-1.317532e+000 1:0.471292 2:1.000000 3:1.000000 4:1.000000 5:0.359063 6:0.615631 7:0.247997 8:1.000000 9:1.000000 10:1.000000 11:0.576139 12:1.000000 13:1.000000 14:0.123755 15:1.000000 16:1.000000 17:1.000000 18:1.000000
1.686590e+000 1:0.619550 2:1.000000 3:1.000000 4:1.000000 5:0.411541 6:0.523230 7:0.177528 8:1.000000 9:1.000000 10:1.000000 11:0.505018 12:1.000000 13:1.000000 14:0.021461 15:1.000000 16:1.000000 17:1.000000 18:1.000000
-1.514656e+000 1:0.471292 2:1.000000 3:1.000000 4:1.000000 5:0.359063 6:0.615631 7:0.247997 8:1.000000 9:1.000000 10:1.000000 11:0.576139 12:1.000000 13:1.000000 14:0.123755 15:1.000000 16:1.000000 17:1.000000 18:1.000000
1.414079e+000 1:0.517080 2:1.000000 3:1.000000 4:1.000000 5:0.220952 6:0.316577 7:0.114193 8:1.000000 9:1.000000 10:1.000000 11:0.555481 12:1.000000 13:1.000000 14:0.019425 15:1.000000 16:1.000000 17:1.000000 18:1.000000
-1.432507e+000 1:0.785746 2:1.000000 3:1.000000 4:1.000000 5:0.275388 6:0.220084 7:0.021263 8:1.000000 9:1.000000 10:1.000000 11:0.673047 12:1.000000 13:1.000000 14:0.019074 15:1.000000 16:1.000000 17:1.000000 18:1.000000
1.193453e+000 1:0.742482 2:1.000000 3:1.000000 4:1.000000 5:0.464511 6:0.439057 7:0.119658 8:1.000000 9:1.000000 10:1.000000 11:0.634858 12:1.000000 13:1.000000 14:0.022092 15:1.000000 16:1.000000 17:1.000000 18:1.000000
-1.237043e+000 1:0.548751 2:1.000000 3:1.000000 4:1.000000 5:0.541874 6:0.380148 7:0.190145 8:1.000000 9:1.000000 10:1.000000 11:0.620131 12:1.000000 13:1.000000 14:0.023025 15:1.000000 16:1.000000 17:1.000000 18:1.000000
1.216213e+000 1:0.517080 2:1.000000 3:1.000000 4:1.000000 5:0.220952 6:0.316577 7:0.114193 8:1.000000 9:1.000000 10:1.000000 11:0.555481 12:1.000000 13:1.000000 14:0.019425 15:1.000000 16:1.000000 17:1.000000 18:1.000000
-1.153209e+000 1:0.471292 2:1.000000 3:1.000000 4:1.000000 5:0.359063 6:0.615631 7:0.247997 8:1.000000 9:1.000000 10:1.000000 11:0.576139 12:1.000000 13:1.000000 14:0.123755 15:1.000000 16:1.000000 17:1.000000 18:1.000000
1.273987e+000 1:0.551495 2:1.000000 3:1.000000 4:1.000000 5:0.421237 6:0.544944 7:0.155227 8:1.000000 9:1.000000 10:1.000000 11:0.812588 12:1.000000 13:1.000000 14:0.006104 15:1.000000 16:1.000000 17:1.000000 18:1.000000
-1.340178e+000 1:0.785746 2:1.000000 3:1.000000 4:1.000000 5:0.275388 6:0.220084 7:0.021263 8:1.000000 9:1.000000 10:1.000000 11:0.673047 12:1.000000 13:1.000000 14:0.019074 15:1.000000 16:1.000000 17:1.000000 18:1.000000
1.092926e+000 1:0.619550 2:1.000000 3:1.000000 4:1.000000 5:0.411541 6:0.523230 7:0.177528 8:1.000000 9:1.000000 10:1.000000 11:0.505018 12:1.000000 13:1.000000 14:0.021461 15:1.000000 16:1.000000 17:1.000000 18:1.000000
-1.350873e+000 1:0.471292 2:1.000000 3:1.000000 4:1.000000 5:0.359063 6:0.615631 7:0.247997 8:1.000000 9:1.000000 10:1.000000 11:0.576139 12:1.000000 13:1.000000 14:0.123755 15:1.000000 16:1.000000 17:1.000000 18:1.000000
1.270063e+000 1:0.468314 2:1.000000 3:1.000000 4:1.000000 5:0.279394 6:0.628796 7:0.354567 8:1.000000 9:1.000000 10:1.000000 11:0.307613 12:1.000000 13:1.000000 14:0.190607 15:1.000000 16:1.000000 17:1.000000 18:1.000000
-1.051421e+000 1:0.471292 2:1.000000 3:1.000000 4:1.000000 5:0.359063 6:0.615631 7:0.247997 8:1.000000 9:1.000000 10:1.000000 11:0.576139 12:1.000000 13:1.000000 14:0.123755 15:1.000000 16:1.000000 17:1.000000 18:1.000000
1.347798e+000 1:0.551495 2:1.000000 3:1.000000 4:1.000000 5:0.421237 6:0.544944 7:0.155227 8:1.000000 9:1.000000 10:1.000000 11:0.812588 12:1.000000 13:1.000000 14:0.006104 15:1.000000 16:1.000000 17:1.000000 18:1.000000
-1.127120e+000 1:0.403734 2:1.000000 3:1.000000 4:1.000000 5:0.355812 6:0.571956 7:0.261414 8:1.000000 9:1.000000 10:1.000000 11:0.650922 12:1.000000 13:1.000000 14:0.019533 15:1.000000 16:1.000000 17:1.000000 18:1.000000
1.340775e+000 1:0.120965 2:1.000000 3:1.000000 4:1.000000 5:0.376164 6:0.938850 7:0.541997 8:1.000000 9:1.000000 10:1.000000 11:0.565584 12:1.000000 13:1.000000 14:0.057415 15:1.000000 16:1.000000 17:1.000000 18:1.000000
-1.383025e+000 1:0.022691 2:1.000000 3:1.000000 4:1.000000 5:0.507945 6:0.999846 7:0.858490 8:1.000000 9:1.000000 10:1.000000 11:0.628886 12:1.000000 13:1.000000 14:0.029801 15:1.000000 16:1.000000 17:1.000000 18:1.000000
1.054335e+000 1:0.120965 2:1.000000 3:1.000000 4:1.000000 5:0.376164 6:0.938850 7:0.541997 8:1.000000 9:1.000000 10:1.000000 11:0.565584 12:1.000000 13:1.000000 14:0.057415 15:1.000000 16:1.000000 17:1.000000 18:1.000000
-1.049819e+000 1:0.648990 2:1.000000 3:1.000000 4:1.000000 5:0.215976 6:0.733253 7:0.555012 8:1.000000 9:1.000000 10:1.000000 11:0.527206 12:1.000000 13:1.000000 14:0.019586 15:1.000000 16:1.000000 17:1.000000 18:1.000000
1.312545e+000 1:0.638635 2:1.000000 3:1.000000 4:1.000000 5:0.256136 6:0.513136 7:0.518037 8:1.000000 9:1.000000 10:1.000000 11:0.504594 12:1.000000 13:1.000000 14:0.022127 15:1.000000 16:1.000000 17:1.000000 18:1.000000
-1.257790e+000 1:0.471292 2:1.000000 3:1.000000 4:1.000000 5:0.359063 6:0.615631 7:0.247997 8:1.000000 9:1.000000 10:1.000000 11:0.576139 12:1.000000 13:1.000000 14:0.123755 15:1.000000 16:1.000000 17:1.000000 18:1.000000
1.262383e+000 1:0.619550 2:1.000000 3:1.000000 4:1.000000 5:0.411541 6:0.523230 7:0.177528 8:1.000000 9:1.000000 10:1.000000 11:0.505018 12:1.000000 13:1.000000 14:0.021461 15:1.000000 16:1.000000 17:1.000000 18:1.000000
-1.142084e+000 1:0.548751 2:1.000000 3:1.000000 4:1.000000 5:0.541874 6:0.380148 7:0.190145 8:1.000000 9:1.000000 10:1.000000 11:0.620131 12:1.000000 13:1.000000 14:0.023025 15:1.000000 16:1.000000 17:1.000000 18:1.000000
1.132617e+000 1:0.551495 2:1.000000 3:1.000000 4:1.000000 5:0.421237 6:0.544944 7:0.155227 8:1.000000 9:1.000000 10:1.000000 11:0.812588 12:1.000000 13:1.000000 14:0.006104 15:1.000000 16:1.000000 17:1.000000 18:1.000000
-1.174149e+000 1:0.661130 2:1.000000 3:1.000000 4:1.000000 5:0.186794 6:0.722428 7:0.531512 8:1.000000 9:1.000000 10:1.000000 11:0.522421 12:1.000000 13:1.000000 14:0.019264 15:1.000000 16:1.000000 17:1.000000 18:1.000000
1.207560e+000 1:0.497590 2:1.000000 3:1.000000 4:1.000000 5:0.212300 6:0.676584 7:0.789622 8:1.000000 9:1.000000 10:1.000000 11:0.804533 12:1.000000 13:1.000000 14:0.015152 15:1.000000 16:1.000000 17:1.000000 18:1.000000
-1.062194e+000 1:0.223183 2:1.000000 3:1.000000 4:1.000000 5:0.236925 6:0.891011 7:0.920257 8:1.000000 9:1.000000 10:1.000000 11:0.692188 12:1.000000 13:1.000000 14:0.019315 15:1.000000 16:1.000000 17:1.000000 18:1.000000
9.354535e-001 1:0.510622 2:1.000000 3:1.000000 4:1.000000 5:0.263137 6:0.983752 7:0.815330 8:1.000000 9:1.000000 10:1.000000 11:0.671255 12:1.000000 13:1.000000 14:0.023789 15:1.000000 16:1.000000 17:1.000000 18:1.000000
-1.095121e+000 1:0.631575 2:1.000000 3:1.000000 4:1.000000 5:0.228957 6:0.774394 7:0.583842 8:1.000000 9:1.000000 10:1.000000 11:0.618468 12:1.000000 13:1.000000 14:0.022597 15:1.000000 16:1.000000 17:1.000000 18:1.000000
1.171079e+000 1:0.638635 2:1.000000 3:1.000000 4:1.000000 5:0.256136 6:0.513136 7:0.518037 8:1.000000 9:1.000000 10:1.000000 11:0.504594 12:1.000000 13:1.000000 14:0.022127 15:1.000000 16:1.000000 17:1.000000 18:1.000000
-1.163718e+000 1:0.403734 2:1.000000 3:1.000000 4:1.000000 5:0.355812 6:0.571956 7:0.261414 8:1.000000 9:1.000000 10:1.000000 11:0.650922 12:1.000000 13:1.000000 14:0.019533 15:1.000000 16:1.000000 17:1.000000 18:1.000000
1.118470e+000 1:0.619550 2:1.000000 3:1.000000 4:1.000000 5:0.411541 6:0.523230 7:0.177528 8:1.000000 9:1.000000 10:1.000000 11:0.505018 12:1.000000 13:1.000000 14:0.021461 15:1.000000 16:1.000000 17:1.000000 18:1.000000
-1.288117e+000 1:0.847194 2:1.000000 3:1.000000 4:1.000000 5:0.426987 6:0.262093 7:0.059837 8:1.000000 9:1.000000 10:1.000000 11:0.610102 12:1.000000 13:1.000000 14:0.018894 15:1.000000 16:1.000000 17:1.000000 18:1.000000
1.098467e+000 1:0.517080 2:1.000000 3:1.000000 4:1.000000 5:0.220952 6:0.316577 7:0.114193 8:1.000000 9:1.000000 10:1.000000 11:0.555481 12:1.000000 13:1.000000 14:0.019425 15:1.000000 16:1.000000 17:1.000000 18:1.000000
-1.151841e+000 1:0.403734 2:1.000000 3:1.000000 4:1.000000 5:0.355812 6:0.571956 7:0.261414 8:1.000000 9:1.000000 10:1.000000 11:0.650922 12:1.000000 13:1.000000 14:0.019533 15:1.000000 16:1.000000 17:1.000000 18:1.000000
1.212445e+000 1:0.120965 2:1.000000 3:1.000000 4:1.000000 5:0.376164 6:0.938850 7:0.541997 8:1.000000 9:1.000000 10:1.000000 11:0.565584 12:1.000000 13:1.000000 14:0.057415 15:1.000000 16:1.000000 17:1.000000 18:1.000000
-9.907610e-001 1:0.022691 2:1.000000 3:1.000000 4:1.000000 5:0.507945 6:0.999846 7:0.858490 8:1.000000 9:1.000000 10:1.000000 11:0.628886 12:1.000000 13:1.000000 14:0.029801 15:1.000000 16:1.000000 17:1.000000 18:1.000000
8.612823e-001 1:0.551495 2:1.000000 3:1.000000 4:1.000000 5:0.421237 6:0.544944 7:0.155227 8:1.000000 9:1.000000 10:1.000000 11:0.812588 12:1.000000 13:1.000000 14:0.006104 15:1.000000 16:1.000000 17:1.000000 18:1.000000
-1.179131e+000 1:0.403734 2:1.000000 3:1.000000 4:1.000000 5:0.355812 6:0.571956 7:0.261414 8:1.000000 9:1.000000 10:1.000000 11:0.650922 12:1.000000 13:1.000000 14:0.019533 15:1.000000 16:1.000000 17:1.000000 18:1.000000
1.122168e+000 1:0.449228 2:1.000000 3:1.000000 4:1.000000 5:0.298314 6:0.704437 7:0.584384 8:1.000000 9:1.000000 10:1.000000 11:0.808686 12:1.000000 13:1.000000 14:0.004533 15:1.000000 16:1.000000 17:1.000000 18:1.000000
-1.177043e+000 1:0.631575 2:1.000000 3:1.000000 4:1.000000 5:0.228957 6:0.774394 7:0.583842 8:1.000000 9:1.000000 10:1.000000 11:0.618468 12:1.000000 13:1.000000 14:0.022597 15:1.000000 16:1.000000 17:1.000000 18:1.000000
1.161243e+000 1:0.619550 2:1.000000 3:1.000000 4:1.000000 5:0.411541 6:0.523230 7:0.177528 8:1.000000 9:1.000000 10:1.000000 11:0.505018 12:1.000000 13:1.000000 14:0.021461 15:1.000000 16:1.000000 17:1.000000 18:1.000000
-1.114809e+000 1:0.548751 2:1.000000 3:1.000000 4:1.000000 5:0.541874 6:0.380148 7:0.190145 8:1.000000 9:1.000000 10:1.000000 11:0.620131 12:1.000000 13:1.000000 14:0.023025 15:1.000000 16:1.000000 17:1.000000 18:1.000000
1.004044e+000 1:0.674079 2:1.000000 3:1.000000 4:1.000000 5:0.404029 6:0.718088 7:0.569239 8:1.000000 9:1.000000 10:1.000000 11:0.776781 12:1.000000 13:1.000000 14:0.081047 15:1.000000 16:1.000000 17:1.000000 18:1.000000
-1.101863e+000 1:0.824162 2:1.000000 3:1.000000 4:1.000000 5:0.218867 6:0.667626 7:0.478484 8:1.000000 9:1.000000 10:1.000000 11:0.604557 12:1.000000 13:1.000000 14:0.018378 15:1.000000 16:1.000000 17:1.000000 18:1.000000
1.152077e+000 1:0.619550 2:1.000000 3:1.000000 4:1.000000 5:0.411541 6:0.523230 7:0.177528 8:1.000000 9:1.000000 10:1.000000 11:0.505018 12:1.000000 13:1.000000 14:0.021461 15:1.000000 16:1.000000 17:1.000000 18:1.000000
-1.131530e+000 1:0.471292 2:1.000000 3:1.000000 4:1.000000 5:0.359063 6:0.615631 7:0.247997 8:1.000000 9:1.000000 10:1.000000 11:0.576139 12:1.000000 13:1.000000 14:0.123755 15:1.000000 16:1.000000 17:1.000000 18:1.000000
1.104055e+000 1:0.322472 2:1.000000 3:1.000000 4:1.000000 5:0.387193 6:0.679485 7:0.403046 8:1.000000 9:1.000000 10:1.000000 11:0.685681 12:1.000000 13:1.000000 14:0.571479 15:1.000000 16:1.000000 17:1.000000 18:1.000000
6.618288e-001 1:0.459419 2:1.000000 3:1.000000 4:1.000000 5:0.353096 6:0.709372 7:0.610860 8:1.000000 9:1.000000 10:1.000000 11:0.324446 12:1.000000 13:1.000000 14:0.039840 15:1.000000 16:1.000000 17:1.000000 18:1.000000
-1.085751e+000 1:0.471292 2:1.000000 3:1.000000 4:1.000000 5:0.359063 6:0.615631 7:0.247997 8:1.000000 9:1.000000 10:1.000000 11:0.576139 12:1.000000 13:1.000000 14:0.123755 15:1.000000 16:1.000000 17:1.000000 18:1.000000
1.223678e+000 1:0.517080 2:1.000000 3:1.000000 4:1.000000 5:0.220952 6:0.316577 7:0.114193 8:1.000000 9:1.000000 10:1.000000 11:0.555481 12:1.000000 13:1.000000 14:0.019425 15:1.000000 16:1.000000 17:1.000000 18:1.000000
-9.996504e-001 1:0.785746 2:1.000000 3:1.000000 4:1.000000 5:0.275388 6:0.220084 7:0.021263 8:1.000000 9:1.000000 10:1.000000 11:0.673047 12:1.000000 13:1.000000 14:0.019074 15:1.000000 16:1.000000 17:1.000000 18:1.000000
1.008781e+000 1:0.742482 2:1.000000 3:1.000000 4:1.000000 5:0.464511 6:0.439057 7:0.119658 8:1.000000 9:1.000000 10:1.000000 11:0.634858 12:1.000000 13:1.000000 14:0.022092 15:1.000000 16:1.000000 17:1.000000 18:1.000000
-1.165898e+000 1:0.471292 2:1.000000 3:1.000000 4:1.000000 5:0.359063 6:0.615631 7:0.247997 8:1.000000 9:1.000000 10:1.000000 11:0.576139 12:1.000000 13:1.000000 14:0.123755 15:1.000000 16:1.000000 17:1.000000 18:1.000000
1.052503e+000 1:0.372887 2:1.000000 3:1.000000 4:1.000000 5:0.411219 6:0.747279 7:0.162477 8:1.000000 9:1.000000 10:1.000000 11:0.806044 12:1.000000 13:1.000000 14:0.006018 15:1.000000 16:1.000000 17:1.000000 18:1.000000
-9.135202e-001 1:0.403734 2:1.000000 3:1.000000 4:1.000000 5:0.355812 6:0.571956 7:0.261414 8:1.000000 9:1.000000 10:1.000000 11:0.650922 12:1.000000 13:1.000000 14:0.019533 15:1.000000 16:1.000000 17:1.000000 18:1.000000
1.083517e+000 1:0.619550 2:1.000000 3:1.000000 4:1.000000 5:0.411541 6:0.523230 7:0.177528 8:1.000000 9:1.000000 10:1.000000 11:0.505018 12:1.000000 13:1.000000 14:0.021461 15:1.000000 16:1.000000 17:1.000000 18:1.000000
-1.062910e+000 1:0.847194 2:1.000000 3:1.000000 4:1.000000 5:0.426987 6:0.262093 7:0.059837 8:1.000000 9:1.000000 10:1.000000 11:0.610102 12:1.000000 13:1.000000 14:0.018894 15:1.000000 16:1.000000 17:1.000000 18:1.000000
9.685166e-001 1:0.673566 2:1.000000 3:1.000000 4:1.000000 5:0.221163 6:0.294380 7:0.089972 8:1.000000 9:1.000000 10:1.000000 11:0.587374 12:1.000000 13:1.000000 14:0.021601 15:1.000000 16:1.000000 17:1.000000 18:1.000000
-1.044817e+000 1:0.471292 2:1.000000 3:1.000000 4:1.000000 5:0.359063 6:0.615631 7:0.247997 8:1.000000 9:1.000000 10:1.000000 11:0.576139 12:1.000000 13:1.000000 14:0.123755 15:1.000000 16:1.000000 17:1.000000 18:1.000000
1.043518e+000 1:0.120965 2:1.000000 3:1.000000 4:1.000000 5:0.376164 6:0.938850 7:0.541997 8:1.000000 9:1.000000 10:1.000000 11:0.565584 12:1.000000 13:1.000000 14:0.057415 15:1.000000 16:1.000000 17:1.000000 18:1.000000
-8.900743e-001 1:0.223183 2:1.000000 3:1.000000 4:1.000000 5:0.236925 6:0.891011 7:0.920257 8:1.000000 9:1.000000 10:1.000000 11:0.692188 12:1.000000 13:1.000000 14:0.019315 15:1.000000 16:1.000000 17:1.000000 18:1.000000
9.779411e-001 1:0.506484 2:1.000000 3:1.000000 4:1.000000 5:0.179331 6:0.622656 7:0.629004 8:1.000000 9:1.000000 10:1.000000 11:0.813569 12:1.000000 13:1.000000 14:0.003499 15:1.000000 16:1.000000 17:1.000000 18:1.000000
-9.750309e-001 1:0.438962 2:1.000000 3:1.000000 4:1.000000 5:0.330654 6:0.605213 7:0.370245 8:1.000000 9:1.000000 10:1.000000 11:0.641339 12:1.000000 13:1.000000 14:0.024524 15:1.000000 16:1.000000 17:1.000000 18:1.000000
1.088653e+000 1:0.619550 2:1.000000 3:1.000000 4:1.000000 5:0.411541 6:0.523230 7:0.177528 8:1.000000 9:1.000000 10:1.000000 11:0.505018 12:1.000000 13:1.000000 14:0.021461 15:1.000000 16:1.000000 17:1.000000 18:1.000000
-9.765396e-001 1:0.990457 2:1.000000 3:1.000000 4:1.000000 5:0.354894 6:0.346511 7:0.218516 8:1.000000 9:1.000000 10:1.000000 11:0.488209 12:1.000000 13:1.000000 14:0.005358 15:1.000000 16:1.000000 17:1.000000 18:1.000000
7.884803e-001 1:0.742482 2:1.000000 3:1.000000 4:1.000000 5:0.464511 6:0.439057 7:0.119658 8:1.000000 9:1.000000 10:1.000000 11:0.634858 12:1.000000 13:1.000000 14:0.022092 15:1.000000 16:1.000000 17:1.000000 18:1.000000
-1.104180e+000 1:0.403734 2:1.000000 3:1.000000 4:1.000000 5:0.355812 6:0.571956 7:0.261414 8:1.000000 9:1.000000 10:1.000000 11:0.650922 12:1.000000 13:1.000000 14:0.019533 15:1.000000 16:1.000000 17:1.000000 18:1.000000
1.064515e+000 1:0.417898 2:1.000000 3:1.000000 4:1.000000 5:0.154796 6:0.529225 7:0.531865 8:1.000000 9:1.000000 10:1.000000 11:0.478851 12:1.000000 13:1.000000 14:0.006323 15:1.000000 16:1.000000 17:1.000000 18:1.000000
-8.884511e-001 1:0.622691 2:1.000000 3:1.000000 4:1.000000 5:0.259050 6:0.740039 7:0.555729 8:1.000000 9:1.000000 10:1.000000 11:0.588678 12:1.000000 13:1.000000 14:0.021633 15:1.000000 16:1.000000 17:1.000000 18:1.000000
1.050710e+000 1:0.674079 2:1.000000 3:1.000000 4:1.000000 5:0.404029 6:0.718088 7:0.569239 8:1.000000 9:1.000000 10:1.000000 11:0.776781 12:1.000000 13:1.000000 14:0.081047 15:1.000000 16:1.000000 17:1.000000 18:1.000000
-9.258833e-001 1:0.622691 2:1.000000 3:1.000000 4:1.000000 5:0.259050 6:0.740039 7:0.555729 8:1.000000 9:1.000000 10:1.000000 11:0.588678 12:1.000000 13:1.000000 14:0.021633 15:1.000000 16:1.000000 17:1.000000 18:1.000000
9.275888e-001 1:0.510622 2:1.000000 3:1.000000 4:1.000000 5:0.263137 6:0.983752 7:0.815330 8:1.000000 9:1.000000 10:1.000000 11:0.671255 12:1.000000 13:1.000000 14:0.023789 15:1.000000 16:1.000000 17:1.000000 18:1.000000
-8.301967e-001 1:0.223183 2:1.000000 3:1.000000 4:1.000000 5:0.236925 6:0.891011 7:0.920257 8:1.000000 9:1.000000 10:1.000000 11:0.692188 12:1.000000 13:1.000000 14:0.019315 15:1.000000 16:1.000000 17:1.000000 18:1.000000
8.523921e-001 1:0.120965 2:1.000000 3:1.000000 4:1.000000 5:0.376164 6:0.938850 7:0.541997 8:1.000000 9:1.000000 10:1.000000 11:0.565584 12:1.000000 13:1.000000 14:0.057415 15:1.000000 16:1.000000 17:1.000000 18:1.000000
-7.786022e-001 1:0.422819 2:1.000000 3:1.000000 4:1.000000 5:0.617524 6:0.575284 7:0.279774 8:1.000000 9:1.000000 10:1.000000 11:0.646587 12:1.000000 13:1.000000 14:0.020044 15:1.000000 16:1.000000 17:1.000000 18:1.000000
1.037244e+000 1:0.619550 2:1.000000 3:1.000000 4:1.000000 5:0.411541 6:0.523230 7:0.177528 8:1.000000 9:1.000000 10:1.000000 11:0.505018 12:1.000000 13:1.000000 14:0.021461 15:1.000000 16:1.000000 17:1.000000 18:1.000000
-1.010869e+000 1:0.471292 2:1.000000 3:1.000000 4:1.000000 5:0.359063 6:0.615631 7:0.247997 8:1.000000 9:1.000000 10:1.000000 11:0.576139 12:1.000000 13:1.000000 14:0.123755 15:1.000000 16:1.000000 17:1.000000 18:1.000000
9.599832e-001 1:0.551495 2:1.000000 3:1.000000 4:1.000000 5:0.421237 6:0.544944 7:0.155227 8:1.000000 9:1.000000 10:1.000000 11:0.812588 12:1.000000 13:1.000000 14:0.006104 15:1.000000 16:1.000000 17:1.000000 18:1.000000
-9.762665e-001 1:0.847194 2:1.000000 3:1.000000 4:1.000000 5:0.426987 6:0.262093 7:0.059837 8:1.000000 9:1.000000 10:1.000000 11:0.610102 12:1.000000 13:1.000000 14:0.018894 15:1.000000 16:1.000000 17:1.000000 18:1.000000
8.684505e-001 1:0.742482 2:1.000000 3:1.000000 4:1.000000 5:0.464511 6:0.439057 7:0.119658 8:1.000000 9:1.000000 10:1.000000 11:0.634858 12:1.000000 13:1.000000 14:0.022092 15:1.000000 16:1.000000 17:1.000000 18:1.000000
-9.741103e-001 1:0.403734 2:1.000000 3:1.000000 4:1.000000 5:0.355812 6:0.571956 7:0.261414 8:1.000000 9:1.000000 10:1.000000 11:0.650922 12:1.000000 13:1.000000 14:0.019533 15:1.000000 16:1.000000 17:1.000000 18:1.000000
9.841365e-001 1:0.417898 2:1.000000 3:1.000000 4:1.000000 5:0.154796 6:0.529225 7:0.531865 8:1.000000 9:1.000000 10:1.000000 11:0.478851 12:1.000000 13:1.000000 14:0.006323 15:1.000000 16:1.000000 17:1.000000 18:1.000000
-9.671951e-001 1:0.622691 2:1.000000 3:1.000000 4:1.000000 5:0.259050 6:0.740039 7:0.555729 8:1.000000 9:1.000000 10:1.000000 11:0.588678 12:1.000000 13:1.000000 14:0.021633 15:1.000000 16:1.000000 17:1.000000 18:1.000000
9.271273e-001 1:0.638635 2:1.000000 3:1.000000 4:1.000000 5:0.256136 6:0.513136 7:0.518037 8:1.000000 9:1.000000 10:1.000000 11:0.504594 12:1.000000 13:1.000000 14:0.022127 15:1.000000 16:1.000000 17:1.000000 18:1.000000
-8.218958e-001 1:0.622691 2:1.000000 3:1.000000 4:1.000000 5:0.259050 6:0.740039 7:0.555729 8:1.000000 9:1.000000 10:1.000000 11:0.588678 12:1.000000 13:1.000000 14:0.021633 15:1.000000 16:1.000000 17:1.000000 18:1.000000
9.465399e-001 1:0.510622 2:1.000000 3:1.000000 4:1.000000 5:0.263137 6:0.983752 7:0.815330 8:1.000000 9:1.000000 10:1.000000 11:0.671255 12:1.000000 13:1.000000 14:0.023789 15:1.000000 16:1.000000 17:1.000000 18:1.000000
-8.965687e-001 1:0.372133 2:1.000000 3:1.000000 4:1.000000 5:0.100484 6:0.725135 7:0.767840 8:1.000000 9:1.000000 10:1.000000 11:0.595610 12:1.000000 13:1.000000 14:0.020073 15:1.000000 16:1.000000 17:1.000000 18:1.000000
9.391335e-001 1:0.449228 2:1.000000 3:1.000000 4:1.000000 5:0.298314 6:0.704437 7:0.584384 8:1.000000 9:1.000000 10:1.000000 11:0.808686 12:1.000000 13:1.000000 14:0.004533 15:1.000000 16:1.000000 17:1.000000 18:1.000000
-8.184236e-001 1:0.631575 2:1.000000 3:1.000000 4:1.000000 5:0.228957 6:0.774394 7:0.583842 8:1.000000 9:1.000000 10:1.000000 11:0.618468 12:1.000000 13:1.000000 14:0.022597 15:1.000000 16:1.000000 17:1.000000 18:1.000000
9.017483e-001 1:0.468314 2:1.000000 3:1.000000 4:1.000000 5:0.279394 6:0.628796 7:0.354567 8:1.000000 9:1.000000 10:1.000000 11:0.307613 12:1.000000 13:1.000000 14:0.190607 15:1.000000 16:1.000000 17:1.000000 18:1.000000
-9.212885e-001 1:0.548751 2:1.000000 3:1.000000 4:1.000000 5:0.541874 6:0.380148 7:0.190145 8:1.000000 9:1.000000 10:1.000000 11:0.620131 12:1.000000 13:1.000000 14:0.023025 15:1.000000 16:1.000000 17:1.000000 18:1.000000
9.607397e-001 1:0.742482 2:1.000000 3:1.000000 4:1.000000 5:0.464511 6:0.439057 7:0.119658 8:1.000000 9:1.000000 10:1.000000 11:0.634858 12:1.000000 13:1.000000 14:0.022092 15:1.000000 16:1.000000 17:1.000000 18:1.000000
-9.398872e-001 1:0.847194 2:1.000000 3:1.000000 4:1.000000 5:0.426987 6:0.262093 7:0.059837 8:1.000000 9:1.000000 10:1.000000 11:0.610102 12:1.000000 13:1.000000 14:0.018894 15:1.000000 16:1.000000 17:1.000000 18:1.000000
8.540408e-001 1:0.742482 2:1.000000 3:1.000000 4:1.000000 5:0.464511 6:0.439057 7:0.119658 8:1.000000 9:1.000000 10:1.000000 11:0.634858 12:1.000000 13:1.000000 14:0.022092 15:1.000000 16:1.000000 17:1.000000 18:1.000000
-9.830900e-001 1:0.471292 2:1.000000 3:1.000000 4:1.000000 5:0.359063 6:0.615631 7:0.247997 8:1.000000 9:1.000000 10:1.000000 11:0.576139 12:1.000000 13:1.000000 14:0.123755 15:1.000000 16:1.000000 17:1.000000 18:1.000000
9.065702e-001 1:0.372887 2:1.000000 3:1.000000 4:1.000000 5:0.344382 6:0.739247 7:0.299855 8:1.000000 9:1.000000 10:1.000000 11:0.808112 12:1.000000 13:1.000000 14:0.002699 15:1.000000 16:1.000000 17:1.000000 18:1.000000
-8.088068e-001 1:0.403734 2:1.000000 3:1.000000 4:1.000000 5:0.355812 6:0.571956 7:0.261414 8:1.000000 9:1.000000 10:1.000000 11:0.650922 12:1.000000 13:1.000000 14:0.019533 15:1.000000 16:1.000000 17:1.000000 18:1.000000
9.538585e-001 1:0.619550 2:1.000000 3:1.000000 4:1.000000 5:0.411541 6:0.523230 7:0.177528 8:1.000000 9:1.000000 10:1.000000 11:0.505018 12:1.000000 13:1.000000 14:0.021461 15:1.000000 16:1.000000 17:1.000000 18:1.000000
-8.688673e-001 1:0.548751 2:1.000000 3:1.000000 4:1.000000 5:0.541874 6:0.380148 7:0.190145 8:1.000000 9:1.000000 10:1.000000 11:0.620131 12:1.000000 13:1.000000 14:0.023025 15:1.000000 16:1.000000 17:1.000000 18:1.000000
8.182954e-001 1:0.517080 2:1.000000 3:1.000000 4:1.000000 5:0.220952 6:0.316577 7:0.114193 8:1.000000 9:1.000000 10:1.000000 11:0.555481 12:1.000000 13:1.000000 14:0.019425 15:1.000000 16:1.000000 17:1.000000 18:1.000000
-8.440080e-001 1:0.922141 2:1.000000 3:1.000000 4:1.000000 5:0.167437 6:0.362658 7:0.230577 8:1.000000 9:1.000000 10:1.000000 11:0.635526 12:1.000000 13:1.000000 14:0.022377 15:1.000000 16:1.000000 17:1.000000 18:1.000000
7.650574e-001 1:0.638635 2:1.000000 3:1.000000 4:1.000000 5:0.256136 6:0.513136 7:0.518037 8:1.000000 9:1.000000 10:1.000000 11:0.504594 12:1.000000 13:1.000000 14:0.022127 15:1.000000 16:1.000000 17:1.000000 18:1.000000
-9.318071e-001 1:0.622691 2:1.000000 3:1.000000 4:1.000000 5:0.259050 6:0.740039 7:0.555729 8:1.000000 9:1.000000 10:1.000000 11:0.588678 12:1.000000 13:1.000000 14:0.021633 15:1.000000 16:1.000000 17:1.000000 18:1.000000
8.983002e-001 1:0.674079 2:1.000000 3:1.000000 4:1.000000 5:0.404029 6:0.718088 7:0.569239 8:1.000000 9:1.000000 10:1.000000 11:0.776781 12:1.000000 13:1.000000 14:0.081047 15:1.000000 16:1.000000 17:1.000000 18:1.000000
-8.165826e-001 1:0.438962 2:1.000000 3:1.000000 4:1.000000 5:0.330654 6:0.605213 7:0.370245 8:1.000000 9:1.000000 10:1.000000 11:0.641339 12:1.000000 13:1.000000 14:0.024524 15:1.000000 16:1.000000 17:1.000000 18:1.000000
8.382175e-001 1:0.619550 2:1.000000 3:1.000000 4:1.000000 5:0.411541 6:0.523230 7:0.177528 8:1.000000 9:1.000000 10:1.000000 11:0.505018 12:1.000000 13:1.000000 14:0.021461 15:1.000000 16:1.000000 17:1.000000 18:1.000000
-7.933158e-001 1:0.548751 2:1.000000 3:1.000000 4:1.000000 5:0.541874 6:0.380148 7:0.190145 8:1.000000 9:1.000000 10:1.000000 11:0.620131 12:1.000000 13:1.000000 14:0.023025 15:1.000000 16:1.000000 17:1.000000 18:1.000000
8.227966e-001 1:0.551495 2:1.000000 3:1.000000 4:1.000000 5:0.421237 6:0.544944 7:0.155227 8:1.000000 9:1.000000 10:1.000000 11:0.812588 12:1.000000 13:1.000000 14:0.006104 15:1.000000 16:1.000000 17:1.000000 18:1.000000
-8.377683e-001 1:0.471292 2:1.000000 3:1.000000 4:1.000000 5:0.359063 6:0.615631 7:0.247997 8:1.000000 9:1.000000 10:1.000000 11:0.576139 12:1.000000 13:1.000000 14:0.123755 15:1.000000 16:1.000000 17:1.000000 18:1.000000
8.687813e-001 1:0.417898 2:1.000000 3:1.000000 4:1.000000 5:0.154796 6:0.529225 7:0.531865 8:1.000000 9:1.000000 10:1.000000 11:0.478851 12:1.000000 13:1.000000 14:0.006323 15:1.000000 16:1.000000 17:1.000000 18:1.000000
-8.113113e-001 1:0.622691 2:1.000000 3:1.000000 4:1.000000 5:0.259050 6:0.740039 7:0.555729 8:1.000000 9:1.000000 10:1.000000 11:0.588678 12:1.000000 13:1.000000 14:0.021633 15:1.000000 16:1.000000 17:1.000000 18:1.000000
8.437381e-001 1:0.322472 2:1.000000 3:1.000000 4:1.000000 5:0.387193 6:0.679485 7:0.403046 8:1.000000 9:1.000000 10:1.000000 11:0.685681 12:1.000000 13:1.000000 14:0.571479 15:1.000000 16:1.000000 17:1.000000 18:1.000000
-5.650674e-001 1:0.506484 2:1.000000 3:1.000000 4:1.000000 5:0.266075 6:0.496610 7:0.285158 8:1.000000 9:1.000000 10:1.000000 11:0.810407 12:1.000000 13:1.000000 14:0.169602 15:1.000000 16:1.000000 17:1.000000 18:1.000000
8.841220e-001 1:0.660067 2:1.000000 3:1.000000 4:1.000000 5:0.327994 6:0.605896 7:0.423361 8:1.000000 9:1.000000 10:1.000000 11:0.770482 12:1.000000 13:1.000000 14:0.020648 15:1.000000 16:1.000000 17:1.000000 18:1.000000
-7.596505e-001 1:0.471292 2:1.000000 3:1.000000 4:1.000000 5:0.359063 6:0.615631 7:0.247997 8:1.000000 9:1.000000 10:1.000000 11:0.576139 12:1.000000 13:1.000000 14:0.123755 15:1.000000 16:1.000000 17:1.000000 18:1.000000
8.867254e-001 1:0.619550 2:1.000000 3:1.000000 4:1.000000 5:0.411541 6:0.523230 7:0.177528 8:1.000000 9:1.000000 10:1.000000 11:0.505018 12:1.000000 13:1.000000 14:0.021461 15:1.000000 16:1.000000 17:1.000000 18:1.000000
-8.180102e-001 1:0.549865 2:1.000000 3:1.000000 4:1.000000 5:0.333877 6:0.415154 7:0.214018 8:1.000000 9:1.000000 10:1.000000 11:0.658763 12:1.000000 13:1.000000 14:0.053989 15:1.000000 16:1.000000 17:1.000000 18:1.000000
7.911647e-001 1:0.551495 2:1.000000 3:1.000000 4:1.000000 5:0.421237 6:0.544944 7:0.155227 8:1.000000 9:1.000000 10:1.000000 11:0.812588 12:1.000000 13:1.000000 14:0.006104 15:1.000000 16:1.000000 17:1.000000 18:1.000000
-7.266281e-001 1:0.471292 2:1.000000 3:1.000000 4:1.000000 5:0.359063 6:0.615631 7:0.247997 8:1.000000 9:1.000000 10:1.000000 11:0.576139 12:1.000000 13:1.000000 14:0.123755 15:1.000000 16:1.000000 17:1.000000 18:1.000000
8.051237e-001 1:0.468314 2:1.000000 3:1.000000 4:1.000000 5:0.279394 6:0.628796 7:0.354567 8:1.000000 9:1.000000 10:1.000000 11:0.307613 12:1.000000 13:1.000000 14:0.190607 15:1.000000 16:1.000000 17:1.000000 18:1.000000
-7.206547e-001 1:0.622691 2:1.000000 3:1.000000 4:1.000000 5:0.259050 6:0.740039 7:0.555729 8:1.000000 9:1.000000 10:1.000000 11:0.588678 12:1.000000 13:1.000000 14:0.021633 15:1.000000 16:1.000000 17:1.000000 18:1.000000
8.460774e-001 1:0.325822 2:1.000000 3:1.000000 4:1.000000 5:0.178267 6:0.913845 7:0.466877 8:1.000000 9:1.000000 10:1.000000 11:0.702057 12:1.000000 13:1.000000 14:0.064783 15:1.000000 16:1.000000 17:1.000000 18:1.000000
-7.468622e-001 1:0.022691 2:1.000000 3:1.000000 4:1.000000 5:0.507945 6:0.999846 7:0.858490 8:1.000000 9:1.000000 10:1.000000 11:0.628886 12:1.000000 13:1.000000 14:0.029801 15:1.000000 16:1.000000 17:1.000000 18:1.000000
6.257485e-001 1:0.510622 2:1.000000 3:1.000000 4:1.000000 5:0.263137 6:0.983752 7:0.815330 8:1.000000 9:1.000000 10:1.000000 11:0.671255 12:1.000000 13:1.000000 14:0.023789 15:1.000000 16:1.000000 17:1.000000 18:1.000000
-8.642492e-001 1:0.622691 2:1.000000 3:1.000000 4:1.000000 5:0.259050 6:0.740039 7:0.555729 8:1.000000 9:1.000000 10:1.000000 11:0.588678 12:1.000000 13:1.000000 14:0.021633 15:1.000000 16:1.000000 17:1.000000 18:1.000000
9.236477e-001 1:0.638635 2:1.000000 3:1.000000 4:1.000000 5:0.256136 6:0.513136 7:0.518037 8:1.000000 9:1.000000 10:1.000000 11:0.504594 12:1.000000 13:1.000000 14:0.022127 15:1.000000 16:1.000000 17:1.000000 18:1.000000
-8.298347e-001 1:0.471292 2:1.000000 3:1.000000 4:1.000000 5:0.359063 6:0.615631 7:0.247997 8:1.000000 9:1.000000 10:1.000000 11:0.576139 12:1.000000 13:1.000000 14:0.123755 15:1.000000 16:1.000000 17:1.000000 18:1.000000
7.982592e-001 1:0.372887 2:1.000000 3:1.000000 4:1.000000 5:0.411219 6:0.747279 7:0.162477 8:1.000000 9:1.000000 10:1.000000 11:0.806044 12:1.000000 13:1.000000 14:0.006018 15:1.000000 16:1.000000 17:1.000000 18:1.000000
-6.729705e-001 1:0.403734 2:1.000000 3:1.000000 4:1.000000 5:0.355812 6:0.571956 7:0.261414 8:1.000000 9:1.000000 10:1.000000 11:0.650922 12:1.000000 13:1.000000 14:0.019533 15:1.000000 16:1.000000 17:1.000000 18:1.000000
8.201604e-001 1:0.619550 2:1.000000 3:1.000000 4:1.000000 5:0.411541 6:0.523230 7:0.177528 8:1.000000 9:1.000000 10:1.000000 11:0.505018 12:1.000000 13:1.000000 14:0.021461 15:1.000000 16:1.000000 17:1.000000 18:1.000000
-8.461513e-001 1:0.990457 2:1.000000 3:1.000000 4:1.000000 5:0.354894 6:0.346511 7:0.218516 8:1.000000 9:1.000000 10:1.000000 11:0.488209 12:1.000000 13:1.000000 14:0.005358 15:1.000000 16:1.000000 17:1.000000 18:1.000000
6.587812e-001 1:0.673566 2:1.000000 3:1.000000 4:1.000000 5:0.221163 6:0.294380 7:0.089972 8:1.000000 9:1.000000 10:1.000000 11:0.587374 12:1.000000 13:1.000000 14:0.021601 15:1.000000 16:1.000000 17:1.000000 18:1.000000
-7.900567e-001 1:0.384649 2:1.000000 3:1.000000 4:1.000000 5:0.279871 6:0.444609 7:0.116199 8:1.000000 9:1.000000 10:1.000000 11:0.645919 12:1.000000 13:1.000000 14:0.018995 15:1.000000 16:1.000000 17:1.000000 18:1.000000
7.189652e-001 1:0.517080 2:1.000000 3:1.000000 4:1.000000 5:0.220952 6:0.316577 7:0.114193 8:1.000000 9:1.000000 10:1.000000 11:0.555481 12:1.000000 13:1.000000 14:0.019425 15:1.000000 16:1.000000 17:1.000000 18:1.000000
-7.666688e-001 1:0.785746 2:1.000000 3:1.000000 4:1.000000 5:0.275388 6:0.220084 7:0.021263 8:1.000000 9:1.000000 10:1.000000 11:0.673047 12:1.000000 13:1.000000 14:0.019074 15:1.000000 16:1.000000 17:1.000000 18:1.000000
7.305347e-001 1:0.742482 2:1.000000 3:1.000000 4:1.000000 5:0.464511 6:0.439057 7:0.119658 8:1.000000 9:1.000000 10:1.000000 11:0.634858 12:1.000000 13:1.000000 14:0.022092 15:1.000000 16:1.000000 17:1.000000 18:1.000000
-7.949874e-001 1:0.471292 2:1.000000 3:1.000000 4:1.000000 5:0.359063 6:0.615631 7:0.247997 8:1.000000 9:1.000000 10:1.000000 11:0.576139 12:1.000000 13:1.000000 14:0.123755 15:1.000000 16:1.000000 17:1.000000 18:1.000000
8.950846e-001 1:0.120965 2:1.000000 3:1.000000 4:1.000000 5:0.376164 6:0.938850 7:0.541997 8:1.000000 9:1.000000 10:1.000000 11:0.565584 12:1.000000 13:1.000000 14:0.057415 15:1.000000 16:1.000000 17:1.000000 18:1.000000
-7.747128e-001 1:0.223183 2:1.000000 3:1.000000 4:1.000000 5:0.236925 6:0.891011 7:0.920257 8:1.000000 9:1.000000 10:1.000000 11:0.692188 12:1.000000 13:1.000000 14:0.019315 15:1.000000 16:1.000000 17:1.000000 18:1.000000
7.042006e-001 1:0.506484 2:1.000000 3:1.000000 4:1.000000 5:0.179331 6:0.622656 7:0.629004 8:1.000000 9:1.000000 10:1.000000 11:0.813569 12:1.000000 13:1.000000 14:0.003499 15:1.000000 16:1.000000 17:1.000000 18:1.000000
-7.851403e-001 1:0.622691 2:1.000000 3:1.000000 4:1.000000 5:0.259050 6:0.740039 7:0.555729 8:1.000000 9:1.000000 10:1.000000 11:0.588678 12:1.000000 13:1.000000 14:0.021633 15:1.000000 16:1.000000 17:1.000000 18:1.000000
8.395013e-001 1:0.638635 2:1.000000 3:1.000000 4:1.000000 5:0.256136 6:0.513136 7:0.518037 8:1.000000 9:1.000000 10:1.000000 11:0.504594 12:1.000000 13:1.000000 14:0.022127 15:1.000000 16:1.000000 17:1.000000 18:1.000000
-7.980178e-001 1:0.454552 2:1.000000 3:1.000000 4:1.000000 5:0.318659 6:0.515432 7:0.356463 8:1.000000 9:1.000000 10:1.000000 11:0.633706 12:1.000000 13:1.000000 14:0.022436 15:1.000000 16:1.000000 17:1.000000 18:1.000000
7.322772e-001 1:0.619550 2:1.000000 3:1.000000 4:1.000000 5:0.411541 6:0.523230 7:0.177528 8:1.000000 9:1.000000 10:1.000000 11:0.505018 12:1.000000 13:1.000000 14:0.021461 15:1.000000 16:1.000000 17:1.000000 18:1.000000
-7.621478e-001 1:0.847194 2:1.000000 3:1.000000 4:1.000000 5:0.426987 6:0.262093 7:0.059837 8:1.000000 9:1.000000 10:1.000000 11:0.610102 12:1.000000 13:1.000000 14:0.018894 15:1.000000 16:1.000000 17:1.000000 18:1.000000
7.098263e-001 1:0.688894 2:1.000000 3:1.000000 4:1.000000 5:0.186084 6:0.211062 7:0.000525 8:1.000000 9:1.000000 10:1.000000 11:0.630104 12:1.000000 13:1.000000 14:0.022384 15:1.000000 16:1.000000 17:1.000000 18:1.000000
-6.574012e-001 1:0.528230 2:1.000000 3:1.000000 4:1.000000 5:0.319892 6:0.388056 7:0.208265 8:1.000000 9:1.000000 10:1.000000 11:0.668022 12:1.000000 13:1.000000 14:0.020246 15:1.000000 16:1.000000 17:1.000000 18:1.000000
7.527192e-001 1:0.551495 2:1.000000 3:1.000000 4:1.000000 5:0.421237 6:0.544944 7:0.155227 8:1.000000 9:1.000000 10:1.000000 11:0.812588 12:1.000000 13:1.000000 14:0.006104 15:1.000000 16:1.000000 17:1.000000 18:1.000000
-6.934137e-001 1:0.471292 2:1.000000 3:1.000000 4:1.000000 5:0.359063 6:0.615631 7:0.247997 8:1.000000 9:1.000000 10:1.000000 11:0.576139 12:1.000000 13:1.000000 14:0.123755 15:1.000000 16:1.000000 17:1.000000 18:1.000000
7.824314e-001 1:0.459419 2:1.000000 3:1.000000 4:1.000000 5:0.353096 6:0.709372 7:0.610860 8:1.000000 9:1.000000 10:1.000000 11:0.324446 12:1.000000 13:1.000000 14:0.039840 15:1.000000 16:1.000000 17:1.000000 18:1.000000
-7.150075e-001 1:0.622691 2:1.000000 3:1.000000 4:1.000000 5:0.259050 6:0.740039 7:0.555729 8:1.000000 9:1.000000 10:1.000000 11:0.588678 12:1.000000 13:1.000000 14:0.021633 15:1.000000 16:1.000000 17:1.000000 18:1.000000
8.227246e-001 1:0.449228 2:1.000000 3:1.000000 4:1.000000 5:0.298314 6:0.704437 7:0.584384 8:1.000000 9:1.000000 10:1.000000 11:0.808686 12:1.000000 13:1.000000 14:0.004533 15:1.000000 16:1.000000 17:1.000000 18:1.000000
-7.274054e-001 1:0.372133 2:1.000000 3:1.000000 4:1.000000 5:0.100484 6:0.725135 7:0.767840 8:1.000000 9:1.000000 10:1.000000 11:0.595610 12:1.000000 13:1.000000 14:0.020073 15:1.000000 16:1.000000 17:1.000000 18:1.000000
7.692916e-001 1:0.510622 2:1.000000 3:1.000000 4:1.000000 5:0.263137 6:0.983752 7:0.815330 8:1.000000 9:1.000000 10:1.000000 11:0.671255 12:1.000000 13:1.000000 14:0.023789 15:1.000000 16:1.000000 17:1.000000 18:1.000000
-7.165040e-001 1:0.572155 2:1.000000 3:1.000000 4:1.000000 5:0.263494 6:0.771800 7:0.584896 8:1.000000 9:1.000000 10:1.000000 11:0.616297 12:1.000000 13:1.000000 14:0.022550 15:1.000000 16:1.000000 17:1.000000 18:1.000000
8.682953e-001 1:0.638635 2:1.000000 3:1.000000 4:1.000000 5:0.256136 6:0.513136 7:0.518037 8:1.000000 9:1.000000 10:1.000000 11:0.504594 12:1.000000 13:1.000000 14:0.022127 15:1.000000 16:1.000000 17:1.000000 18:1.000000
-7.753088e-001 1:0.622691 2:1.000000 3:1.000000 4:1.000000 5:0.259050 6:0.740039 7:0.555729 8:1.000000 9:1.000000 10:1.000000 11:0.588678 12:1.000000 13:1.000000 14:0.021633 15:1.000000 16:1.000000 17:1.000000 18:1.000000
7.320598e-001 1:0.510622 2:1.000000 3:1.000000 4:1.000000 5:0.263137 6:0.983752 7:0.815330 8:1.000000 9:1.000000 10:1.000000 11:0.671255 12:1.000000 13:1.000000 14:0.023789 15:1.000000 16:1.000000 17:1.000000 18:1.000000
-6.397370e-001 1:0.223183 2:1.000000 3:1.000000 4:1.000000 5:0.236925 6:0.891011 7:0.920257 8:1.000000 9:1.000000 10:1.000000 11:0.692188 12:1.000000 13:1.000000 14:0.019315 15:1.000000 16:1.000000 17:1.000000 18:1.000000
6.738809e-001 1:0.076341 2:1.000000 3:1.000000 4:1.000000 5:0.247373 6:0.630061 7:0.619689 8:1.000000 9:1.000000 10:1.000000 11:0.642772 12:1.000000 13:1.000000 14:0.021865 15:1.000000 16:1.000000 17:1.000000 18:1.000000
-6.048766e-001 1:0.514521 2:1.000000 3:1.000000 4:1.000000 5:0.285081 6:0.700141 7:0.511715 8:1.000000 9:1.000000 10:1.000000 11:0.615481 12:1.000000 13:1.000000 14:0.022398 15:1.000000 16:1.000000 17:1.000000 18:1.000000
7.685122e-001 1:0.651843 2:1.000000 3:1.000000 4:1.000000 5:0.122836 6:0.552912 7:0.576281 8:1.000000 9:1.000000 10:1.000000 11:0.586798 12:1.000000 13:1.000000 14:0.018758 15:1.000000 16:1.000000 17:1.000000 18:1.000000
-6.739982e-001 1:0.622691 2:1.000000 3:1.000000 4:1.000000 5:0.259050 6:0.740039 7:0.555729 8:1.000000 9:1.000000 10:1.000000 11:0.588678 12:1.000000 13:1.000000 14:0.021633 15:1.000000 16:1.000000 17:1.000000 18:1.000000
6.933783e-001 1:0.325822 2:1.000000 3:1.000000 4:1.000000 5:0.130015 6:0.938838 7:0.430680 8:1.000000 9:1.000000 10:1.000000 11:0.661048 12:1.000000 13:1.000000 14:0.140024 15:1.000000 16:1.000000 17:1.000000 18:1.000000
-6.222550e-001 1:0.372133 2:1.000000 3:1.000000 4:1.000000 5:0.100484 6:0.725135 7:0.767840 8:1.000000 9:1.000000 10:1.000000 11:0.595610 12:1.000000 13:1.000000 14:0.020073 15:1.000000 16:1.000000 17:1.000000 18:1.000000
7.236474e-001 1:0.510622 2:1.000000 3:1.000000 4:1.000000 5:0.263137 6:0.983752 7:0.815330 8:1.000000 9:1.000000 10:1.000000 11:0.671255 12:1.000000 13:1.000000 14:0.023789 15:1.000000 16:1.000000 17:1.000000 18:1.000000
-5.983495e-001 1:0.022691 2:1.000000 3:1.000000 4:1.000000 5:0.507945 6:0.999846 7:0.858490 8:1.000000 9:1.000000 10:1.000000 11:0.628886 12:1.000000 13:1.000000 14:0.029801 15:1.000000 16:1.000000 17:1.000000 18:1.000000
5.408080e-001 1:0.178221 2:1.000000 3:1.000000 4:1.000000 5:0.487502 6:0.871035 7:0.718547 8:1.000000 9:1.000000 10:1.000000 11:0.554849 12:1.000000 13:1.000000 14:0.023884 15:1.000000 16:1.000000 17:1.000000 18:1.000000
-6.811100e-001 1:0.514521 2:1.000000 3:1.000000 4:1.000000 5:0.285081 6:0.700141 7:0.511715 8:1.000000 9:1.000000 10:1.000000 11:0.615481 12:1.000000 13:1.000000 14:0.022398 15:1.000000 16:1.000000 17:1.000000 18:1.000000
8.267996e-001 1:0.638635 2:1.000000 3:1.000000 4:1.000000 5:0.256136 6:0.513136 7:0.518037 8:1.000000 9:1.000000 10:1.000000 11:0.504594 12:1.000000 13:1.000000 14:0.022127 15:1.000000 16:1.000000 17:1.000000 18:1.000000
-7.356255e-001 1:0.622691 2:1.000000 3:1.000000 4:1.000000 5:0.259050 6:0.740039 7:0.555729 8:1.000000 9:1.000000 10:1.000000 11:0.588678 12:1.000000 13:1.000000 14:0.021633 15:1.000000 16:1.000000 17:1.000000 18:1.000000
7.057508e-001 1:0.660067 2:1.000000 3:1.000000 4:1.000000 5:0.327994 6:0.605896 7:0.423361 8:1.000000 9:1.000000 10:1.000000 11:0.770482 12:1.000000 13:1.000000 14:0.020648 15:1.000000 16:1.000000 17:1.000000 18:1.000000
-7.799822e-001 1:0.528230 2:1.000000 3:1.000000 4:1.000000 5:0.319892 6:0.388056 7:0.208265 8:1.000000 9:1.000000 10:1.000000 11:0.668022 12:1.000000 13:1.000000 14:0.020246 15:1.000000 16:1.000000 17:1.000000 18:1.000000
7.922744e-001 1:0.619550 2:1.000000 3:1.000000 4:1.000000 5:0.411541 6:0.523230 7:0.177528 8:1.000000 9:1.000000 10:1.000000 11:0.505018 12:1.000000 13:1.000000 14:0.021461 15:1.000000 16:1.000000 17:1.000000 18:1.000000
-7.447797e-001 1:0.990457 2:1.000000 3:1.000000 4:1.000000 5:0.354894 6:0.346511 7:0.218516 8:1.000000 9:1.000000 10:1.000000 11:0.488209 12:1.000000 13:1.000000 14:0.005358 15:1.000000 16:1.000000 17:1.000000 18:1.000000
6.188752e-001 1:0.742482 2:1.000000 3:1.000000 4:1.000000 5:0.464511 6:0.439057 7:0.119658 8:1.000000 9:1.000000 10:1.000000 11:0.634858 12:1.000000 13:1.000000 14:0.022092 15:1.000000 16:1.000000 17:1.000000 18:1.000000
-8.311902e-001 1:0.589800 2:1.000000 3:1.000000 4:1.000000 5:0.852007 6:0.543544 7:0.232334 8:1.000000 9:1.000000 10:1.000000 11:0.623986 12:1.000000 13:1.000000 14:0.021977 15:1.000000 16:1.000000 17:1.000000 18:1.000000
6.616181e-001 1:0.728184 2:1.000000 3:1.000000 4:1.000000 5:0.695085 6:0.468730 7:0.219898 8:1.000000 9:1.000000 10:1.000000 11:0.709870 12:1.000000 13:1.000000 14:0.028179 15:1.000000 16:1.000000 17:1.000000 18:1.000000
-7.871094e-001 1:0.549865 2:1.000000 3:1.000000 4:1.000000 5:0.333877 6:0.415154 7:0.214018 8:1.000000 9:1.000000 10:1.000000 11:0.658763 12:1.000000 13:1.000000 14:0.053989 15:1.000000 16:1.000000 17:1.000000 18:1.000000
7.168590e-001 1:0.619550 2:1.000000 3:1.000000 4:1.000000 5:0.411541 6:0.523230 7:0.177528 8:1.000000 9:1.000000 10:1.000000 11:0.505018 12:1.000000 13:1.000000 14:0.021461 15:1.000000 16:1.000000 17:1.000000 18:1.000000
-6.769120e-001 1:0.548751 2:1.000000 3:1.000000 4:1.000000 5:0.541874 6:0.380148 7:0.190145 8:1.000000 9:1.000000 10:1.000000 11:0.620131 12:1.000000 13:1.000000 14:0.023025 15:1.000000 16:1.000000 17:1.000000 18:1.000000
6.542420e-001 1:0.517080 2:1.000000 3:1.000000 4:1.000000 5:0.220952 6:0.316577 7:0.114193 8:1.000000 9:1.000000 10:1.000000 11:0.555481 12:1.000000 13:1.000000 14:0.019425 15:1.000000 16:1.000000 17:1.000000 18:1.000000
-6.519318e-001 1:0.785746 2:1.000000 3:1.000000 4:1.000000 5:0.275388 6:0.220084 7:0.021263 8:1.000000 9:1.000000 10:1.000000 11:0.673047 12:1.000000 13:1.000000 14:0.019074 15:1.000000 16:1.000000 17:1.000000 18:1.000000
6.710264e-001 1:0.697337 2:1.000000 3:1.000000 4:1.000000 5:0.628630 6:0.440763 7:0.113444 8:1.000000 9:1.000000 10:1.000000 11:0.696429 12:1.000000 13:1.000000 14:0.004497 15:1.000000 16:1.000000 17:1.000000 18:1.000000
-7.420688e-001 1:0.471292 2:1.000000 3:1.000000 4:1.000000 5:0.359063 6:0.615631 7:0.247997 8:1.000000 9:1.000000 10:1.000000 11:0.576139 12:1.000000 13:1.000000 14:0.123755 15:1.000000 16:1.000000 17:1.000000 18:1.000000
7.028655e-001 1:0.315631 2:1.000000 3:1.000000 4:1.000000 5:0.291212 6:0.626653 7:0.246624 8:1.000000 9:1.000000 10:1.000000 11:0.666586 12:1.000000 13:1.000000 14:0.724494 15:1.000000 16:1.000000 17:1.000000 18:1.000000
5.246791e-001 1:0.638635 2:1.000000 3:1.000000 4:1.000000 5:0.256136 6:0.513136 7:0.518037 8:1.000000 9:1.000000 10:1.000000 11:0.504594 12:1.000000 13:1.000000 14:0.022127 15:1.000000 16:1.000000 17:1.000000 18:1.000000
-7.482610e-001 1:0.622691 2:1.000000 3:1.000000 4:1.000000 5:0.259050 6:0.740039 7:0.555729 8:1.000000 9:1.000000 10:1.000000 11:0.588678 12:1.000000 13:1.000000 14:0.021633 15:1.000000 16:1.000000 17:1.000000 18:1.000000
7.348356e-001 1:0.506484 2:1.000000 3:1.000000 4:1.000000 5:0.179331 6:0.622656 7:0.629004 8:1.000000 9:1.000000 10:1.000000 11:0.813569 12:1.000000 13:1.000000 14:0.003499 15:1.000000 16:1.000000 17:1.000000 18:1.000000
-6.394117e-001 1:0.454552 2:1.000000 3:1.000000 4:1.000000 5:0.318659 6:0.515432 7:0.356463 8:1.000000 9:1.000000 10:1.000000 11:0.633706 12:1.000000 13:1.000000 14:0.022436 15:1.000000 16:1.000000 17:1.000000 18:1.000000
7.134945e-001 1:0.619550 2:1.000000 3:1.000000 4:1.000000 5:0.411541 6:0.523230 7:0.177528 8:1.000000 9:1.000000 10:1.000000 11:0.505018 12:1.000000 13:1.000000 14:0.021461 15:1.000000 16:1.000000 17:1.000000 18:1.000000
-6.612073e-001 1:0.548751 2:1.000000 3:1.000000 4:1.000000 5:0.541874 6:0.380148 7:0.190145 8:1.000000 9:1.000000 10:1.000000 11:0.620131 12:1.000000 13:1.000000 14:0.023025 15:1.000000 16:1.000000 17:1.000000 18:1.000000
6.242413e-001 1:0.551495 2:1.000000 3:1.000000 4:1.000000 5:0.421237 6:0.544944 7:0.155227 8:1.000000 9:1.000000 10:1.000000 11:0.812588 12:1.000000 13:1.000000 14:0.006104 15:1.000000 16:1.000000 17:1.000000 18:1.000000
-6.460450e-001 1:0.471292 2:1.000000 3:1.000000 4:1.000000 5:0.359063 6:0.615631 7:0.247997 8:1.000000 9:1.000000 10:1.000000 11:0.576139 12:1.000000 13:1.000000 14:0.123755 15:1.000000 16:1.000000 17:1.000000 18:1.000000
7.268970e-001 1:0.398813 2:1.000000 3:1.000000 4:1.000000 5:0.383676 6:0.434839 7:0.211748 8:1.000000 9:1.000000 10:1.000000 11:0.465345 12:1.000000 13:1.000000 14:0.007092 15:1.000000 16:1.000000 17:1.000000 18:1.000000
-6.795630e-001 1:0.549865 2:1.000000 3:1.000000 4:1.000000 5:0.333877 6:0.415154 7:0.214018 8:1.000000 9:1.000000 10:1.000000 11:0.658763 12:1.000000 13:1.000000 14:0.053989 15:1.000000 16:1.000000 17:1.000000 18:1.000000
6.589353e-001 1:0.638635 2:1.000000 3:1.000000 4:1.000000 5:0.256136 6:0.513136 7:0.518037 8:1.000000 9:1.000000 10:1.000000 11:0.504594 12:1.000000 13:1.000000 14:0.022127 15:1.000000 16:1.000000 17:1.000000 18:1.000000
-6.947790e-001 1:0.622691 2:1.000000 3:1.000000 4:1.000000 5:0.259050 6:0.740039 7:0.555729 8:1.000000 9:1.000000 10:1.000000 11:0.588678 12:1.000000 13:1.000000 14:0.021633 15:1.000000 16:1.000000 17:1.000000 18:1.000000
6.975586e-001 1:0.273647 2:1.000000 3:1.000000 4:1.000000 5:0.513449 6:0.743950 7:0.729707 8:1.000000 9:1.000000 10:1.000000 11:0.545886 12:1.000000 13:1.000000 14:0.027157 15:1.000000 16:1.000000 17:1.000000 18:1.000000
-5.548539e-001 1:0.372133 2:1.000000 3:1.000000 4:1.000000 5:0.100484 6:0.725135 7:0.767840 8:1.000000 9:1.000000 10:1.000000 11:0.595610 12:1.000000 13:1.000000 14:0.020073 15:1.000000 16:1.000000 17:1.000000 18:1.000000
6.737215e-001 1:0.651843 2:1.000000 3:1.000000 4:1.000000 5:0.122836 6:0.552912 7:0.576281 8:1.000000 9:1.000000 10:1.000000 11:0.586798 12:1.000000 13:1.000000 14:0.018758 15:1.000000 16:1.000000 17:1.000000 18:1.000000
-6.327579e-001 1:0.626884 2:1.000000 3:1.000000 4:1.000000 5:0.280029 6:0.720321 7:0.539932 8:1.000000 9:1.000000 10:1.000000 11:0.561747 12:1.000000 13:1.000000 14:0.020625 15:1.000000 16:1.000000 17:1.000000 18:1.000000
7.079632e-001 1:0.510622 2:1.000000 3:1.000000 4:1.000000 5:0.263137 6:0.983752 7:0.815330 8:1.000000 9:1.000000 10:1.000000 11:0.671255 12:1.000000 13:1.000000 14:0.023789 15:1.000000 16:1.000000 17:1.000000 18:1.000000
-6.246145e-001 1:0.223183 2:1.000000 3:1.000000 4:1.000000 5:0.236925 6:0.891011 7:0.920257 8:1.000000 9:1.000000 10:1.000000 11:0.692188 12:1.000000 13:1.000000 14:0.019315 15:1.000000 16:1.000000 17:1.000000 18:1.000000
5.909976e-001 1:0.325822 2:1.000000 3:1.000000 4:1.000000 5:0.178267 6:0.913845 7:0.466877 8:1.000000 9:1.000000 10:1.000000 11:0.702057 12:1.000000 13:1.000000 14:0.064783 15:1.000000 16:1.000000 17:1.000000 18:1.000000
-6.420005e-001 1:0.622691 2:1.000000 3:1.000000 4:1.000000 5:0.259050 6:0.740039 7:0.555729 8:1.000000 9:1.000000 10:1.000000 11:0.588678 12:1.000000 13:1.000000 14:0.021633 15:1.000000 16:1.000000 17:1.000000 18:1.000000
6.622593e-001 1:0.638635 2:1.000000 3:1.000000 4:1.000000 5:0.256136 6:0.513136 7:0.518037 8:1.000000 9:1.000000 10:1.000000 11:0.504594 12:1.000000 13:1.000000 14:0.022127 15:1.000000 16:1.000000 17:1.000000 18:1.000000
-6.387061e-001 1:0.454552 2:1.000000 3:1.000000 4:1.000000 5:0.318659 6:0.515432 7:0.356463 8:1.000000 9:1.000000 10:1.000000 11:0.633706 12:1.000000 13:1.000000 14:0.022436 15:1.000000 16:1.000000 17:1.000000 18:1.000000
7.179445e-001 1:0.551495 2:1.000000 3:1.000000 4:1.000000 5:0.421237 6:0.544944 7:0.155227 8:1.000000 9:1.000000 10:1.000000 11:0.812588 12:1.000000 13:1.000000 14:0.006104 15:1.000000 16:1.000000 17:1.000000 18:1.000000
-6.429119e-001 1:0.549865 2:1.000000 3:1.000000 4:1.000000 5:0.333877 6:0.415154 7:0.214018 8:1.000000 9:1.000000 10:1.000000 11:0.658763 12:1.000000 13:1.000000 14:0.053989 15:1.000000 16:1.000000 17:1.000000 18:1.000000
6.709480e-001 1:0.517080 2:1.000000 3:1.000000 4:1.000000 5:0.220952 6:0.316577 7:0.114193 8:1.000000 9:1.000000 10:1.000000 11:0.555481 12:1.000000 13:1.000000 14:0.019425 15:1.000000 16:1.000000 17:1.000000 18:1.000000
-6.438069e-001 1:0.847194 2:1.000000 3:1.000000 4:1.000000 5:0.426987 6:0.262093 7:0.059837 8:1.000000 9:1.000000 10:1.000000 11:0.610102 12:1.000000 13:1.000000 14:0.018894 15:1.000000 16:1.000000 17:1.000000 18:1.000000
6.725747e-001 1:0.742482 2:1.000000 3:1.000000 4:1.000000 5:0.464511 6:0.439057 7:0.119658 8:1.000000 9:1.000000 10:1.000000 11:0.634858 12:1.000000 13:1.000000 14:0.022092 15:1.000000 16:1.000000 17:1.000000 18:1.000000
-7.248429e-001 1:0.528230 2:1.000000 3:1.000000 4:1.000000 5:0.319892 6:0.388056 7:0.208265 8:1.000000 9:1.000000 10:1.000000 11:0.668022 12:1.000000 13:1.000000 14:0.020246 15:1.000000 16:1.000000 17:1.000000 18:1.000000
6.238807e-001 1:0.517080 2:1.000000 3:1.000000 4:1.000000 5:0.220952 6:0.316577 7:0.114193 8:1.000000 9:1.000000 10:1.000000 11:0.555481 12:1.000000 13:1.000000 14:0.019425 15:1.000000 16:1.000000 17:1.000000 18:1.000000
-6.047815e-001 1:0.384649 2:1.000000 3:1.000000 4:1.000000 5:0.279871 6:0.444609 7:0.116199 8:1.000000 9:1.000000 10:1.000000 11:0.645919 12:1.000000 13:1.000000 14:0.018995 15:1.000000 16:1.000000 17:1.000000 18:1.000000
6.474136e-001 1:0.551495 2:1.000000 3:1.000000 4:1.000000 5:0.322315 6:0.565745 7:0.467906 8:1.000000 9:1.000000 10:1.000000 11:0.802799 12:1.000000 13:1.000000 14:0.004615 15:1.000000 16:1.000000 17:1.000000 18:1.000000
-6.277871e-001 1:0.622691 2:1.000000 3:1.000000 4:1.000000 5:0.259050 6:0.740039 7:0.555729 8:1.000000 9:1.000000 10:1.000000 11:0.588678 12:1.000000 13:1.000000 14:0.021633 15:1.000000 16:1.000000 17:1.000000 18:1.000000
6.742695e-001 1:0.459419 2:1.000000 3:1.000000 4:1.000000 5:0.353096 6:0.709372 7:0.610860 8:1.000000 9:1.000000 10:1.000000 11:0.324446 12:1.000000 13:1.000000 14:0.039840 15:1.000000 16:1.000000 17:1.000000 18:1.000000
-5.477984e-001 1:0.630613 2:1.000000 3:1.000000 4:1.000000 5:0.308393 6:0.720114 7:0.534807 8:1.000000 9:1.000000 10:1.000000 11:0.556354 12:1.000000 13:1.000000 14:0.019276 15:1.000000 16:1.000000 17:1.000000 18:1.000000
6.357391e-001 1:0.660067 2:1.000000 3:1.000000 4:1.000000 5:0.327994 6:0.605896 7:0.423361 8:1.000000 9:1.000000 10:1.000000 11:0.770482 12:1.000000 13:1.000000 14:0.020648 15:1.000000 16:1.000000 17:1.000000 18:1.000000
-6.335423e-001 1:0.454552 2:1.000000 3:1.000000 4:1.000000 5:0.318659 6:0.515432 7:0.356463 8:1.000000 9:1.000000 10:1.000000 11:0.633706 12:1.000000 13:1.000000 14:0.022436 15:1.000000 16:1.000000 17:1.000000 18:1.000000
5.991712e-001 1:0.076341 2:1.000000 3:1.000000 4:1.000000 5:0.247373 6:0.630061 7:0.619689 8:1.000000 9:1.000000 10:1.000000 11:0.642772 12:1.000000 13:1.000000 14:0.021865 15:1.000000 16:1.000000 17:1.000000 18:1.000000
-5.606715e-001 1:0.022691 2:1.000000 3:1.000000 4:1.000000 5:0.507945 6:0.999846 7:0.858490 8:1.000000 9:1.000000 10:1.000000 11:0.628886 12:1.000000 13:1.000000 14:0.029801 15:1.000000 16:1.000000 17:1.000000 18:1.000000
5.667309e-001 1:0.510622 2:1.000000 3:1.000000 4:1.000000 5:0.263137 6:0.983752 7:0.815330 8:1.000000 9:1.000000 10:1.000000 11:0.671255 12:1.000000 13:1.000000 14:0.023789 15:1.000000 16:1.000000 17:1.000000 18:1.000000
-6.487866e-001 1:0.372133 2:1.000000 3:1.000000 4:1.000000 5:0.100484 6:0.725135 7:0.767840 8:1.000000 9:1.000000 10:1.000000 11:0.595610 12:1.000000 13:1.000000 14:0.020073 15:1.000000 16:1.000000 17:1.000000 18:1.000000
5.627815e-001 1:0.120965 2:1.000000 3:1.000000 4:1.000000 5:0.376164 6:0.938850 7:0.541997 8:1.000000 9:1.000000 10:1.000000 11:0.565584 12:1.000000 13:1.000000 14:0.057415 15:1.000000 16:1.000000 17:1.000000 18:1.000000
-4.650838e-001 1:0.589800 2:1.000000 3:1.000000 4:1.000000 5:0.852007 6:0.543544 7:0.232334 8:1.000000 9:1.000000 10:1.000000 11:0.623986 12:1.000000 13:1.000000 14:0.021977 15:1.000000 16:1.000000 17:1.000000 18:1.000000
7.053996e-001 1:0.719401 2:1.000000 3:1.000000 4:1.000000 5:0.593570 6:0.455192 7:0.159496 8:1.000000 9:1.000000 10:1.000000 11:0.610253 12:1.000000 13:1.000000 14:0.020984 15:1.000000 16:1.000000 17:1.000000 18:1.000000
-6.586532e-001 1:0.990457 2:1.000000 3:1.000000 4:1.000000 5:0.354894 6:0.346511 7:0.218516 8:1.000000 9:1.000000 10:1.000000 11:0.488209 12:1.000000 13:1.000000 14:0.005358 15:1.000000 16:1.000000 17:1.000000 18:1.000000
5.560081e-001 1:0.688894 2:1.000000 3:1.000000 4:1.000000 5:0.186084 6:0.211062 7:0.000525 8:1.000000 9:1.000000 10:1.000000 11:0.630104 12:1.000000 13:1.000000 14:0.022384 15:1.000000 16:1.000000 17:1.000000 18:1.000000
-6.540964e-001 1:0.403734 2:1.000000 3:1.000000 4:1.000000 5:0.355812 6:0.571956 7:0.261414 8:1.000000 9:1.000000 10:1.000000 11:0.650922 12:1.000000 13:1.000000 14:0.019533 15:1.000000 16:1.000000 17:1.000000 18:1.000000
7.122061e-001 1:0.638635 2:1.000000 3:1.000000 4:1.000000 5:0.256136 6:0.513136 7:0.518037 8:1.000000 9:1.000000 10:1.000000 11:0.504594 12:1.000000 13:1.000000 14:0.022127 15:1.000000 16:1.000000 17:1.000000 18:1.000000
-6.527351e-001 1:0.622691 2:1.000000 3:1.000000 4:1.000000 5:0.259050 6:0.740039 7:0.555729 8:1.000000 9:1.000000 10:1.000000 11:0.588678 12:1.000000 13:1.000000 14:0.021633 15:1.000000 16:1.000000 17:1.000000 18:1.000000
6.089169e-001 1:0.651843 2:1.000000 3:1.000000 4:1.000000 5:0.122836 6:0.552912 7:0.576281 8:1.000000 9:1.000000 10:1.000000 11:0.586798 12:1.000000 13:1.000000 14:0.018758 15:1.000000 16:1.000000 17:1.000000 18:1.000000
-6.449212e-001 1:0.922141 2:1.000000 3:1.000000 4:1.000000 5:0.167437 6:0.362658 7:0.230577 8:1.000000 9:1.000000 10:1.000000 11:0.635526 12:1.000000 13:1.000000 14:0.022377 15:1.000000 16:1.000000 17:1.000000 18:1.000000
6.641763e-001 1:0.742482 2:1.000000 3:1.000000 4:1.000000 5:0.464511 6:0.439057 7:0.119658 8:1.000000 9:1.000000 10:1.000000 11:0.634858 12:1.000000 13:1.000000 14:0.022092 15:1.000000 16:1.000000 17:1.000000 18:1.000000
-6.989236e-001 1:0.528230 2:1.000000 3:1.000000 4:1.000000 5:0.319892 6:0.388056 7:0.208265 8:1.000000 9:1.000000 10:1.000000 11:0.668022 12:1.000000 13:1.000000 14:0.020246 15:1.000000 16:1.000000 17:1.000000 18:1.000000
6.268312e-001 1:0.551495 2:1.000000 3:1.000000 4:1.000000 5:0.421237 6:0.544944 7:0.155227 8:1.000000 9:1.000000 10:1.000000 11:0.812588 12:1.000000 13:1.000000 14:0.006104 15:1.000000 16:1.000000 17:1.000000 18:1.000000
-6.067251e-001 1:0.589666 2:1.000000 3:1.000000 4:1.000000 5:0.852813 6:0.534602 7:0.219332 8:1.000000 9:1.000000 10:1.000000 11:0.802948 12:1.000000 13:1.000000 14:0.004296 15:1.000000 16:1.000000 17:1.000000 18:1.000000
5.240398e-001 1:0.728184 2:1.000000 3:1.000000 4:1.000000 5:0.695085 6:0.468730 7:0.219898 8:1.000000 9:1.000000 10:1.000000 11:0.709870 12:1.000000 13:1.000000 14:0.028179 15:1.000000 16:1.000000 17:1.000000 18:1.000000
-6.584316e-001 1:0.847194 2:1.000000 3:1.000000 4:1.000000 5:0.426987 6:0.262093 7:0.059837 8:1.000000 9:1.000000 10:1.000000 11:0.610102 12:1.000000 13:1.000000 14:0.018894 15:1.000000 16:1.000000 17:1.000000 18:1.000000
6.147357e-001 1:0.688894 2:1.000000 3:1.000000 4:1.000000 5:0.186084 6:0.211062 7:0.000525 8:1.000000 9:1.000000 10:1.000000 11:0.630104 12:1.000000 13:1.000000 14:0.022384 15:1.000000 16:1.000000 17:1.000000 18:1.000000
-6.011466e-001 1:0.528230 2:1.000000 3:1.000000 4:1.000000 5:0.319892 6:0.388056 7:0.208265 8:1.000000 9:1.000000 10:1.000000 11:0.668022 12:1.000000 13:1.000000 14:0.020246 15:1.000000 16:1.000000 17:1.000000 18:1.000000
6.688448e-001 1:0.619550 2:1.000000 3:1.000000 4:1.000000 5:0.411541 6:0.523230 7:0.177528 8:1.000000 9:1.000000 10:1.000000 11:0.505018 12:1.000000 13:1.000000 14:0.021461 15:1.000000 16:1.000000 17:1.000000 18:1.000000
-6.175330e-001 1:0.471292 2:1.000000 3:1.000000 4:1.000000 5:0.359063 6:0.615631 7:0.247997 8:1.000000 9:1.000000 10:1.000000 11:0.576139 12:1.000000 13:1.000000 14:0.123755 15:1.000000 16:1.000000 17:1.000000 18:1.000000
6.079250e-001 1:0.372887 2:1.000000 3:1.000000 4:1.000000 5:0.344382 6:0.739247 7:0.299855 8:1.000000 9:1.000000 10:1.000000 11:0.808112 12:1.000000 13:1.000000 14:0.002699 15:1.000000 16:1.000000 17:1.000000 18:1.000000
-5.651633e-001 1:0.514521 2:1.000000 3:1.000000 4:1.000000 5:0.285081 6:0.700141 7:0.511715 8:1.000000 9:1.000000 10:1.000000 11:0.615481 12:1.000000 13:1.000000 14:0.022398 15:1.000000 16:1.000000 17:1.000000 18:1.000000
6.787927e-001 1:0.638635 2:1.000000 3:1.000000 4:1.000000 5:0.256136 6:0.513136 7:0.518037 8:1.000000 9:1.000000 10:1.000000 11:0.504594 12:1.000000 13:1.000000 14:0.022127 15:1.000000 16:1.000000 17:1.000000 18:1.000000
-6.062918e-001 1:0.622691 2:1.000000 3:1.000000 4:1.000000 5:0.259050 6:0.740039 7:0.555729 8:1.000000 9:1.000000 10:1.000000 11:0.588678 12:1.000000 13:1.000000 14:0.021633 15:1.000000 16:1.000000 17:1.000000 18:1.000000
6.324411e-001 1:0.510622 2:1.000000 3:1.000000 4:1.000000 5:0.263137 6:0.983752 7:0.815330 8:1.000000 9:1.000000 10:1.000000 11:0.671255 12:1.000000 13:1.000000 14:0.023789 15:1.000000 16:1.000000 17:1.000000 18:1.000000
-5.030266e-001 1:0.223183 2:1.000000 3:1.000000 4:1.000000 5:0.236925 6:0.891011 7:0.920257 8:1.000000 9:1.000000 10:1.000000 11:0.692188 12:1.000000 13:1.000000 14:0.019315 15:1.000000 16:1.000000 17:1.000000 18:1.000000
5.226261e-001 1:0.076341 2:1.000000 3:1.000000 4:1.000000 5:0.247373 6:0.630061 7:0.619689 8:1.000000 9:1.000000 10:1.000000 11:0.642772 12:1.000000 13:1.000000 14:0.021865 15:1.000000 16:1.000000 17:1.000000 18:1.000000
-5.255229e-001 1:0.454552 2:1.000000 3:1.000000 4:1.000000 5:0.318659 6:0.515432 7:0.356463 8:1.000000 9:1.000000 10:1.000000 11:0.633706 12:1.000000 13:1.000000 14:0.022436 15:1.000000 16:1.000000 17:1.000000 18:1.000000
6.212952e-001 1:0.619550 2:1.000000 3:1.000000 4:1.000000 5:0.411541 6:0.523230 7:0.177528 8:1.000000 9:1.000000 10:1.000000 11:0.505018 12:1.000000 13:1.000000 14:0.021461 15:1.000000 16:1.000000 17:1.000000 18:1.000000
-6.601546e-001 1:0.847194 2:1.000000 3:1.000000 4:1.000000 5:0.426987 6:0.262093 7:0.059837 8:1.000000 9:1.000000 10:1.000000 11:0.610102 12:1.000000 13:1.000000 14:0.018894 15:1.000000 16:1.000000 17:1.000000 18:1.000000
6.002568e-001 1:0.742482 2:1.000000 3:1.000000 4:1.000000 5:0.464511 6:0.439057 7:0.119658 8:1.000000 9:1.000000 10:1.000000 11:0.634858 12:1.000000 13:1.000000 14:0.022092 15:1.000000 16:1.000000 17:1.000000 18:1.000000
-6.440960e-001 1:0.471292 2:1.000000 3:1.000000 4:1.000000 5:0.359063 6:0.615631 7:0.247997 8:1.000000 9:1.000000 10:1.000000 11:0.576139 12:1.000000 13:1.000000 14:0.123755 15:1.000000 16:1.000000 17:1.000000 18:1.000000
5.842610e-001 1:0.651843 2:1.000000 3:1.000000 4:1.000000 5:0.122836 6:0.552912 7:0.576281 8:1.000000 9:1.000000 10:1.000000 11:0.586798 12:1.000000 13:1.000000 14:0.018758 15:1.000000 16:1.000000 17:1.000000 18:1.000000
-6.129972e-001 1:0.622691 2:1.000000 3:1.000000 4:1.000000 5:0.259050 6:0.740039 7:0.555729 8:1.000000 9:1.000000 10:1.000000 11:0.588678 12:1.000000 13:1.000000 14:0.021633 15:1.000000 16:1.000000 17:1.000000 18:1.000000
6.114135e-001 1:0.660067 2:1.000000 3:1.000000 4:1.000000 5:0.327994 6:0.605896 7:0.423361 8:1.000000 9:1.000000 10:1.000000 11:0.770482 12:1.000000 13:1.000000 14:0.020648 15:1.000000 16:1.000000 17:1.000000 18:1.000000
-5.561899e-001 1:0.528230 2:1.000000 3:1.000000 4:1.000000 5:0.319892 6:0.388056 7:0.208265 8:1.000000 9:1.000000 10:1.000000 11:0.668022 12:1.000000 13:1.000000 14:0.020246 15:1.000000 16:1.000000 17:1.000000 18:1.000000
6.518737e-001 1:0.398813 2:1.000000 3:1.000000 4:1.000000 5:0.383676 6:0.434839 7:0.211748 8:1.000000 9:1.000000 10:1.000000 11:0.465345 12:1.000000 13:1.000000 14:0.007092 15:1.000000 16:1.000000 17:1.000000 18:1.000000
-5.747134e-001 1:0.454552 2:1.000000 3:1.000000 4:1.000000 5:0.318659 6:0.515432 7:0.356463 8:1.000000 9:1.000000 10:1.000000 11:0.633706 12:1.000000 13:1.000000 14:0.022436 15:1.000000 16:1.000000 17:1.000000 18:1.000000
5.769931e-001 1:0.372887 2:1.000000 3:1.000000 4:1.000000 5:0.344382 6:0.739247 7:0.299855 8:1.000000 9:1.000000 10:1.000000 11:0.808112 12:1.000000 13:1.000000 14:0.002699 15:1.000000 16:1.000000 17:1.000000 18:1.000000
-5.168664e-001 1:0.514521 2:1.000000 3:1.000000 4:1.000000 5:0.285081 6:0.700141 7:0.511715 8:1.000000 9:1.000000 10:1.000000 11:0.615481 12:1.000000 13:1.000000 14:0.022398 15:1.000000 16:1.000000 17:1.000000 18:1.000000
6.110862e-001 1:0.651843 2:1.000000 3:1.000000 4:1.000000 5:0.122836 6:0.552912 7:0.576281 8:1.000000 9:1.000000 10:1.000000 11:0.586798 12:1.000000 13:1.000000 14:0.018758 15:1.000000 16:1.000000 17:1.000000 18:1.000000
-5.645491e-001 1:0.824162 2:1.000000 3:1.000000 4:1.000000 5:0.218867 6:0.667626 7:0.478484 8:1.000000 9:1.000000 10:1.000000 11:0.604557 12:1.000000 13:1.000000 14:0.018378 15:1.000000 16:1.000000 17:1.000000 18:1.000000
