svm_type c_svc
kernel_type rbf
gamma 4.000000
nr_class 2
total_sv 124
rho -0.024871
label 1 2
nr_sv 65 59
SV
7.382016e-001 1:0.500000 2:0.438784 3:0.325114 4:0.401994 5:0.477754 6:0.176198 7:0.553237 8:0.203339 9:0.406868 10:0.405804 11:0.797381 12:0.087102 13:0.021195 14:0.082667 15:0.878678 16:0.706096 17:0.505665 18:0.685563
6.564903e-001 1:0.500000 2:0.771792 3:0.690492 4:0.838076 5:0.803906 6:0.227592 7:0.374195 8:0.246658 9:0.993741 10:0.167696 11:0.821510 12:0.298395 13:0.124868 14:0.271024 15:0.804818 16:0.235773 17:0.061747 18:0.249311
4.958695e-001 1:0.600000 2:0.581658 3:0.469337 4:0.833140 5:0.658907 6:0.302982 7:0.087818 8:0.437850 9:0.516385 10:0.494163 11:0.818299 12:0.122525 13:0.033412 14:0.115258 15:0.819123 16:0.394599 17:0.163873 18:0.376650
1.735103e-001 1:0.500000 2:0.457330 3:0.342771 4:0.383977 5:0.319200 6:0.204475 7:0.306090 8:0.341469 9:0.694183 10:0.162550 11:0.714859 12:0.120951 13:0.032825 14:0.106802 15:0.482357 16:0.222770 17:0.055544 18:0.212985
5.489517e-001 1:0.500000 2:0.609572 3:0.499715 4:0.744561 5:0.790314 6:0.277740 7:0.417277 8:0.254700 9:0.420847 10:0.853763 11:0.753598 12:0.439187 13:0.235037 14:0.496765 15:0.517750 16:0.051788 17:0.004360 18:0.054827
7.516144e-002 1:0.600000 2:0.690867 3:0.592284 4:0.376490 5:0.372477 6:0.572630 7:0.192236 8:0.491847 9:0.242108 10:0.361296 11:0.754974 12:0.345724 13:0.158236 14:0.378932 15:0.549128 16:0.132156 17:0.021385 18:0.120077
4.454830e-001 1:0.500000 2:0.748261 3:0.661311 4:0.050130 5:0.359099 6:0.799270 7:0.464877 8:0.584054 9:0.196305 10:0.269301 11:0.729673 12:0.242704 13:0.090360 14:0.220099 15:0.528836 16:0.149397 17:0.026663 18:0.158138
5.141983e-001 1:0.500000 2:0.950298 3:0.928496 4:0.657384 5:0.618268 6:0.381432 7:0.248752 8:0.412446 9:0.575100 10:0.547754 11:0.673239 12:0.049327 13:0.010458 14:0.046043 15:0.530257 16:0.125695 17:0.019555 18:0.114588
1.679901e-002 1:0.500000 2:0.813332 3:0.743252 4:0.466881 5:0.749952 6:0.521212 7:0.331167 8:0.657730 9:0.410558 10:0.223058 11:0.673796 12:0.112997 13:0.029921 14:0.078296 15:0.551741 16:0.050935 17:0.004247 18:0.055493
1.537714e+000 1:0.500000 2:0.711497 3:0.616746 4:0.395439 5:0.769266 6:0.712093 7:0.482630 8:0.552749 9:0.194566 10:0.346282 11:0.658389 12:0.068059 13:0.015487 14:0.058315 15:0.553731 16:0.057777 17:0.005199 18:0.062865
1.054277e+000 1:0.700000 2:0.423215 3:0.310537 4:0.633126 5:0.700138 6:0.370863 7:0.293497 8:0.420593 9:0.614980 10:0.280543 11:0.631556 12:0.024146 13:0.004616 14:0.023650 15:0.554107 16:0.018916 17:0.000992 18:0.015530
1.361838e+000 1:0.600000 2:0.691738 3:0.593309 4:0.794434 5:0.795015 6:0.285703 7:0.331805 8:0.288614 9:0.143383 10:0.621378 11:0.622876 12:0.032570 13:0.006453 14:0.032810 15:0.556400 16:0.014956 17:0.000727 18:0.017285
7.030786e-001 1:0.500000 2:0.693477 3:0.595357 4:0.659035 5:0.680318 6:0.177579 7:0.463208 8:0.328810 9:0.355266 10:0.293556 11:0.632340 12:0.033750 13:0.006720 14:0.030183 15:0.554383 16:0.034737 17:0.002353 18:0.038450
1.032470e+000 1:0.700000 2:0.106920 3:0.062843 4:0.518581 5:0.264164 6:0.247361 7:0.240342 8:0.233167 9:0.384798 10:0.176376 11:0.629017 12:0.050158 13:0.010669 14:0.047433 15:0.555711 16:0.011168 17:0.000502 18:0.010569
6.573983e-001 1:0.700000 2:0.533638 3:0.418761 4:0.287456 5:0.330164 6:0.458064 7:0.230781 8:0.523711 9:0.511721 10:0.070314 11:0.620684 12:0.029339 13:0.005735 14:0.031231 15:0.562546 16:0.010316 17:0.000455 18:0.012053
1.053766e+000 1:0.700000 2:0.391265 3:0.281323 4:0.335745 5:0.681897 6:0.648016 7:0.495688 8:0.506041 9:0.783232 10:0.169303 11:0.650586 12:0.189720 13:0.062302 14:0.179801 15:0.564388 16:0.013056 17:0.000611 18:0.011736
5.883105e-001 1:0.600000 2:0.727911 3:0.636488 4:0.467644 5:0.679820 6:0.092879 7:0.679725 8:0.227668 9:0.478542 10:0.238666 11:0.743910 12:0.280057 13:0.112938 14:0.302996 15:0.594954 16:0.072419 17:0.007540 18:0.073762
1.043916e+000 1:0.500000 2:0.933177 3:0.904393 4:0.754347 5:0.774214 6:0.410728 7:0.253434 8:0.429455 9:0.860788 10:0.160992 11:0.641207 12:0.017887 13:0.003326 14:0.017301 15:0.584412 16:0.083143 17:0.009518 18:0.085475
1.305706e+000 1:0.600000 2:0.301197 3:0.204042 4:0.476996 5:0.816848 6:0.367691 7:0.642643 8:0.405852 9:0.726547 10:0.174255 11:0.647549 12:0.029926 13:0.005864 14:0.030775 15:0.519763 16:0.063081 17:0.005999 18:0.065991
9.719169e-001 1:0.700000 2:0.577541 3:0.464917 4:0.137429 5:0.439490 6:0.642981 7:0.557981 8:0.454934 9:0.392984 10:0.308941 11:0.627482 12:0.020604 13:0.003878 14:0.020646 15:0.554040 16:0.018762 17:0.000981 18:0.014959
1.332561e-001 1:0.600000 2:0.727911 3:0.636488 4:0.467644 5:0.679820 6:0.092879 7:0.679725 8:0.227668 9:0.478542 10:0.238666 11:0.795635 12:0.075442 13:0.017628 14:0.071575 15:0.556288 16:0.016609 17:0.000834 18:0.018856
7.194099e-001 1:0.500000 2:0.933177 3:0.904393 4:0.754347 5:0.774214 6:0.410728 7:0.253434 8:0.429455 9:0.860788 10:0.160992 11:0.823439 12:0.299046 13:0.125302 14:0.270749 15:0.867505 16:0.757227 17:0.579676 18:0.778304
7.401124e-001 1:0.600000 2:0.303499 3:0.205924 4:0.795168 5:0.807193 6:0.143244 7:0.489763 8:0.202559 9:0.594447 10:0.340699 11:0.819783 12:0.131607 13:0.036879 14:0.124517 15:0.809459 16:0.249104 17:0.068446 18:0.253878
7.703175e-001 1:0.500000 2:0.552196 3:0.438054 4:0.374018 5:0.281425 6:0.491137 7:0.283824 8:0.409465 9:0.680004 10:0.076203 11:0.852138 12:0.115696 13:0.030895 14:0.103317 15:0.809865 16:0.489482 17:0.248133 18:0.473373
4.968644e-001 1:0.600000 2:0.981908 3:0.973707 4:0.714511 5:0.732387 6:0.439538 7:0.190058 8:0.455365 9:0.621122 10:0.386020 11:0.732572 12:0.201991 13:0.068386 14:0.177445 15:0.603587 16:0.589859 17:0.356202 18:0.580743
1.014743e+000 1:0.500000 2:0.608425 3:0.498452 4:0.589074 5:0.412085 6:0.087999 7:0.353745 8:0.146057 9:0.368233 10:0.592265 11:0.715935 12:0.129046 13:0.035888 14:0.118827 15:0.509809 16:0.741155 17:0.555868 18:0.696852
3.140591e-001 1:0.600000 2:0.809665 3:0.738529 4:0.529749 5:0.712230 6:0.508431 7:0.393780 8:0.495120 9:0.252262 10:0.327711 11:0.683820 12:0.063232 13:0.014135 14:0.054714 15:0.461329 16:0.144231 17:0.025021 18:0.141762
7.210499e-002 1:0.500000 2:0.700769 3:0.603976 4:0.000000 5:0.374833 6:0.796130 7:0.412496 8:0.675303 9:0.295934 10:0.139052 11:0.981105 12:0.117281 13:0.031472 14:0.094445 15:0.525638 16:0.055409 17:0.004859 18:0.052090
6.367774e-001 1:0.500000 2:0.829003 3:0.763568 4:0.764925 5:0.773741 6:0.096289 7:0.516915 8:0.148850 9:0.134454 10:0.666763 11:0.964310 12:0.051000 13:0.010884 14:0.050971 15:0.416283 16:0.232158 17:0.059990 18:0.223966
1.472762e-001 1:0.600000 2:0.902605 3:0.862027 4:0.170084 5:0.347270 6:0.299484 7:0.558956 8:0.325777 9:0.088353 10:0.487355 11:0.954137 12:0.119587 13:0.032319 14:0.106823 15:0.458139 16:0.081194 17:0.009142 18:0.075272
8.673606e-001 1:0.700000 2:0.932562 3:0.903532 4:0.634960 5:0.659791 6:0.024914 7:0.596474 8:0.094850 9:0.249238 10:0.349226 11:0.730405 12:0.595726 13:0.396106 14:0.649432 15:0.487259 16:0.166111 17:0.032327 18:0.164139
9.801746e-001 1:0.700000 2:0.738781 3:0.649700 4:0.558792 5:0.657996 6:0.443212 7:0.225259 8:0.544253 9:0.279333 10:0.437935 11:0.343782 12:1.000000 13:1.000000 14:1.000000 15:0.526238 16:0.183103 17:0.038639 18:0.175572
2 1:0.650000 2:0.112759 3:0.066579 4:0.533007 5:0.843141 6:0.284416 7:0.630395 8:0.353930 9:0.652021 10:0.373498 11:0.157730 12:0.347309 13:0.159418 14:0.368821 15:0.518869 16:0.363165 17:0.139793 18:0.357895
1.346686e+000 1:0.000000 2:0.671480 3:0.569654 4:0.352238 5:0.684965 6:0.458702 7:0.591256 8:0.434697 9:0.428409 10:0.162710 11:0.014197 12:0.175046 13:0.055354 14:0.132581 15:0.510194 16:0.148650 17:0.026422 18:0.143343
1.252650e+000 1:0.700000 2:0.283182 3:0.189483 4:0.364025 5:0.199584 6:0.209471 7:0.328674 8:0.290059 9:0.049770 10:0.198203 11:0.026820 12:0.090695 13:0.022339 14:0.088440 15:0.543128 16:0.128354 17:0.020298 18:0.125006
2 1:0.800000 2:0.883432 3:0.835897 4:0.747944 5:0.556258 6:0.120067 7:0.276505 8:0.224687 9:0.626007 10:0.327164 11:0.112351 12:0.193698 13:0.064247 14:0.190902 15:0.512877 16:0.359102 17:0.136820 18:0.376470
1.647726e+000 1:0.100000 2:0.716452 3:0.622679 4:0.216901 5:0.510139 6:0.679664 7:0.345518 8:0.615352 9:0.174078 10:0.039178 11:0.175023 12:0.054329 13:0.011744 14:0.055265 15:0.423583 16:0.625639 17:0.399430 18:0.642158
2 1:0.300000 2:0.651423 3:0.546607 4:0.380008 5:0.515895 6:0.576998 7:0.319492 8:0.589617 9:0.658594 10:0.211855 11:0.155033 12:0.078114 13:0.018426 14:0.078854 15:0.485011 16:0.103794 17:0.013952 18:0.096838
2 1:0.300000 2:0.809203 3:0.737935 4:0.654760 5:0.869744 6:0.588896 7:0.297613 8:0.633728 9:0.382039 10:0.410217 11:0.148066 12:0.016088 13:0.002968 14:0.015234 15:0.497875 16:0.006151 17:0.000247 18:0.005466
7.371464e-001 1:0.300000 2:0.866660 3:0.813318 4:0.137821 5:0.807700 6:1.000000 7:0.385609 8:1.000000 9:0.233778 10:0.332314 11:0.821677 12:0.238146 13:0.087763 14:0.212679 15:0.514667 16:0.029895 17:0.001885 18:0.027135
9.406907e-001 1:0.200000 2:0.435113 3:0.321657 4:0.912248 5:0.988826 6:0.263849 7:0.401063 8:0.307984 9:0.301271 10:0.807145 11:0.834038 12:0.126944 13:0.035082 14:0.122268 15:0.509466 16:0.039651 17:0.002874 18:0.030348
2.619321e-001 1:0.600000 2:0.724386 3:0.632228 4:0.275666 5:0.421431 6:0.520402 7:0.402878 8:0.457847 9:0.545601 10:0.163705 11:0.720969 12:0.181796 13:0.058506 14:0.142796 15:0.562894 16:0.235870 17:0.061795 18:0.227709
5.332458e-001 1:0.900000 2:0.654355 3:0.549953 4:0.225350 5:0.495258 6:0.370000 7:0.449026 8:0.550005 9:0.193280 10:0.156730 11:0.716956 12:0.124331 13:0.034091 14:0.116688 15:0.590397 16:0.041262 17:0.003055 18:0.043596
2 1:0.950000 2:0.431653 3:0.318410 4:0.208045 5:0.557052 6:0.298877 7:0.508668 8:0.579783 9:0.442257 10:0.224202 11:0.684432 12:0.199644 13:0.067203 14:0.144098 15:0.607117 16:0.091928 17:0.011304 18:0.097311
1.186316e+000 1:0.800000 2:0.436807 3:0.323251 4:0.681890 5:0.747885 6:0.453071 7:0.269264 8:0.486687 9:0.517055 10:0.390134 11:0.753762 12:0.334980 13:0.150336 14:0.368030 15:0.824295 16:0.284738 17:0.088036 18:0.294760
9.395992e-001 1:0.600000 2:0.372517 3:0.264620 4:0.886656 5:0.877204 6:0.348576 7:0.253647 8:0.349816 9:0.590251 10:0.249628 11:0.691059 12:0.054478 13:0.011783 14:0.052538 15:0.647390 16:0.932434 17:0.871587 18:0.962929
2.151918e-001 1:0.900000 2:0.697885 3:0.600561 4:0.676289 5:0.450322 6:0.319208 7:0.190467 8:0.295761 9:0.264490 10:0.542649 11:0.662869 12:0.018784 13:0.003507 14:0.018826 15:0.549999 16:0.280939 17:0.085831 18:0.266073
3.678215e-001 1:0.700000 2:0.530796 3:0.415835 4:0.677258 5:0.664787 6:0.217860 7:0.422278 8:0.244127 9:1.000000 10:0.132197 11:0.676149 12:0.122353 13:0.033348 14:0.095289 15:0.466832 16:0.084242 17:0.009733 18:0.073084
1.225052e+000 1:1.000000 2:0.685459 3:0.585936 4:0.603716 5:0.502664 6:0.290364 7:0.300590 8:0.256804 9:0.237186 10:0.692023 11:0.638231 12:0.025759 13:0.004958 14:0.025956 15:0.491307 16:0.282215 17:0.086569 18:0.290604
9.000792e-001 1:0.700000 2:0.997694 3:0.996632 4:0.257459 5:0.851328 6:0.600457 7:0.646227 8:0.596113 9:0.457394 10:0.453229 11:0.623629 12:0.021019 13:0.003963 14:0.021574 15:0.525975 16:0.040943 17:0.003018 18:0.039311
8.982345e-001 1:0.550000 2:0.410109 3:0.298440 4:0.607863 5:0.470152 6:0.027832 7:0.468131 8:0.076597 9:0.851805 10:0.368217 11:0.631540 12:0.044740 13:0.009316 14:0.039342 15:0.549128 16:0.132156 17:0.021385 18:0.120077
7.400547e-001 1:0.500000 2:0.686419 3:0.587061 4:0.844763 5:0.833357 6:0.261205 7:0.388454 8:0.252209 9:0.885432 10:0.176493 11:0.629808 12:0.049368 13:0.010469 14:0.048497 15:0.521204 16:0.060389 17:0.005586 18:0.063370
1.383137e+000 1:0.700000 2:0.693630 3:0.595537 4:0.681750 5:0.644625 6:0.251699 7:0.262294 8:0.444834 9:0.466502 10:0.366219 11:0.623779 12:0.023692 13:0.004520 14:0.024813 15:0.549376 16:0.102082 17:0.013553 18:0.093180
1.274100e+000 1:0.600000 2:0.670010 3:0.567952 4:0.511806 5:0.293956 6:0.247814 7:0.242135 8:0.256727 9:0.429247 10:0.299649 11:0.646312 12:0.209557 13:0.072262 14:0.202195 15:0.553731 16:0.057777 17:0.005199 18:0.062865
5.412539e-001 1:0.500000 2:0.919793 3:0.885739 4:0.711958 5:0.687944 6:0.310641 7:0.328440 8:0.283819 9:0.427908 10:0.790785 11:0.684547 12:0.336998 13:0.151805 14:0.386603 15:0.554107 16:0.018916 17:0.000992 18:0.015530
3.144292e-001 1:0.550000 2:0.742949 3:0.654796 4:0.479350 5:0.254073 6:0.290333 7:0.159362 8:0.452681 9:0.167863 10:0.512115 11:0.710532 12:0.065962 13:0.014895 14:0.063191 15:0.556400 16:0.014956 17:0.000727 18:0.017285
4.502770e-001 1:0.500000 2:0.934878 3:0.906776 4:0.492080 5:0.708551 6:0.554037 7:0.309823 8:0.613604 9:0.421155 10:0.218998 11:0.743910 12:0.280057 13:0.112938 14:0.302996 15:0.555711 16:0.011168 17:0.000502 18:0.010569
9.105356e-001 1:0.600000 2:0.462505 3:0.347755 4:0.750167 5:0.729393 6:0.410129 7:0.205059 8:0.441713 9:0.551114 10:0.359955 11:0.642387 12:0.014629 13:0.002681 14:0.014070 15:0.564388 16:0.013056 17:0.000611 18:0.011736
6.909394e-001 1:0.600000 2:0.467804 3:0.352883 4:0.507073 5:0.718116 6:0.691587 7:0.248319 8:0.630418 9:0.355459 10:0.314285 11:0.777371 12:0.318523 13:0.138605 14:0.278021 15:0.567757 16:0.083414 17:0.009571 18:0.089804
2.788476e-002 1:0.500000 2:0.817326 3:0.748408 4:0.791509 5:0.765028 6:0.060851 7:0.497909 8:0.118540 9:0.191387 10:0.667045 11:0.867991 12:0.314577 13:0.135859 14:0.298505 15:0.571045 16:0.012048 17:0.000552 18:0.011331
4.853805e-001 1:0.600000 2:0.923541 3:0.890946 4:0.159496 5:0.330279 6:0.278341 7:0.570022 8:0.321705 9:0.116605 10:0.443272 11:0.988600 12:0.106885 13:0.027761 14:0.095676 15:0.576823 16:0.017720 17:0.000909 18:0.018379
4.251974e-001 1:0.500000 2:0.933177 3:0.904393 4:0.754347 5:0.774214 6:0.410728 7:0.253434 8:0.429455 9:0.860788 10:0.160992 11:0.971879 12:0.128748 13:0.035773 14:0.112541 15:0.473828 16:0.502440 17:0.260990 18:0.569446
3.276828e-002 1:0.600000 2:0.303499 3:0.205924 4:0.795168 5:0.807193 6:0.143244 7:0.489763 8:0.202559 9:0.594447 10:0.340699 11:0.945940 12:0.123748 13:0.033871 14:0.120385 15:0.426999 16:0.293044 17:0.092955 18:0.271945
1.967794e-001 1:0.500000 2:0.552196 3:0.438054 4:0.374018 5:0.281425 6:0.491137 7:0.283824 8:0.409465 9:0.680004 10:0.076203 11:0.987655 12:0.062814 13:0.014020 14:0.063974 15:0.450021 16:0.362452 17:0.139269 18:0.247189
9.015523e-001 1:0.600000 2:0.981908 3:0.973707 4:0.714511 5:0.732387 6:0.439538 7:0.190058 8:0.455365 9:0.621122 10:0.386020 11:0.975805 12:0.063013 13:0.014075 14:0.060595 15:0.133103 16:0.822676 17:0.681782 18:0.814168
-1.241752e+000 1:0.500000 2:0.608425 3:0.498452 4:0.589074 5:0.412085 6:0.087999 7:0.353745 8:0.146057 9:0.368233 10:0.592265 11:0.963134 12:0.052844 13:0.011358 14:0.051139 15:0.012274 16:0.423592 17:0.187775 18:0.395935
-1.407558e+000 1:0.600000 2:0.809665 3:0.738529 4:0.529749 5:0.712230 6:0.508431 7:0.393780 8:0.495120 9:0.252262 10:0.327711 11:0.946373 12:0.121978 13:0.033208 14:0.112039 15:0.000000 16:0.345785 17:0.127299 18:0.301785
-1.130778e+000 1:0.500000 2:0.711320 3:0.616535 4:0.491114 5:0.284654 6:0.302421 7:0.227810 8:0.279965 9:0.332273 10:0.455991 11:0.861817 12:0.145810 13:0.042576 14:0.141834 15:0.098085 16:1.000000 17:1.000000 18:1.000000
-1.056114e+000 1:0.500000 2:0.700769 3:0.603976 4:0.000000 5:0.374833 6:0.796130 7:0.412496 8:0.675303 9:0.295934 10:0.139052 11:0.627710 12:0.686703 13:0.508380 14:0.614706 15:0.309832 16:0.323620 17:0.112211 18:0.282293
-9.443883e-001 1:0.500000 2:0.871579 3:0.819913 4:0.589320 5:0.781920 6:0.501463 7:0.326626 8:0.549895 9:0.402910 10:0.309774 11:0.241801 12:0.445606 13:0.240843 14:0.419483 15:0.368470 16:0.203998 17:0.047165 18:0.208748
-7.776014e-001 1:0.600000 2:0.720091 3:0.627052 4:0.315736 5:0.730735 6:0.694041 7:0.588155 8:0.487188 9:0.204965 10:0.285198 11:0.100833 12:0.351993 13:0.162935 14:0.316547 15:0.354452 16:0.197520 17:0.044432 18:0.188438
-3.175747e-001 1:0.600000 2:0.456813 3:0.342275 4:0.757648 5:0.767171 6:0.432095 7:0.228961 8:0.457453 9:0.482560 10:0.439197 11:0.000000 12:0.035438 13:0.007106 14:0.036821 15:0.455301 16:0.098444 17:0.012725 18:0.095326
-5.761487e-001 1:0.650000 2:0.449359 3:0.335144 4:0.523791 5:0.671847 6:0.673665 7:0.222241 8:0.592657 9:0.423737 10:0.322399 11:0.048148 12:0.089300 13:0.021892 14:0.082272 15:0.453168 16:0.167517 17:0.032828 18:0.176254
-6.012649e-001 1:0.500000 2:0.829003 3:0.763568 4:0.764925 5:0.773741 6:0.096289 7:0.516915 8:0.148850 9:0.134454 10:0.666763 11:0.150154 12:0.134651 13:0.038072 14:0.134261 15:0.478768 16:0.175607 17:0.035786 18:0.185764
-5.143969e-001 1:0.600000 2:0.902605 3:0.862027 4:0.170084 5:0.347270 6:0.299484 7:0.558956 8:0.325777 9:0.088353 10:0.487355 11:0.174125 12:0.049265 13:0.010443 14:0.049046 15:0.513247 16:0.129316 17:0.020571 18:0.132127
-2.529789e-001 1:0.700000 2:0.950103 3:0.928219 4:0.570348 5:0.690711 6:0.651761 7:0.385232 8:0.471942 9:0.440945 10:0.181326 11:0.145829 12:0.035048 13:0.007016 14:0.035023 15:0.538408 16:0.163228 17:0.031312 18:0.154983
-1.172462e+000 1:0.700000 2:1.000000 3:1.000000 4:0.702973 5:0.594359 6:0.136452 7:0.379334 8:0.204764 9:0.480398 10:0.426678 11:0.145488 12:0.015225 13:0.002798 14:0.014537 15:0.496922 16:0.216369 17:0.052611 18:0.206165
-1.860973e+000 1:0.700000 2:0.000000 3:0.000000 4:0.509160 5:0.819724 6:0.258666 7:0.673255 8:0.369449 9:0.589392 10:0.353266 11:0.167027 12:0.114674 13:0.030525 14:0.107970 15:0.529122 16:0.371116 17:0.145704 18:0.353992
-1.604713e+000 1:0.000000 2:0.672894 3:0.571293 4:0.272977 5:0.665174 6:0.491286 7:0.648549 8:0.428564 9:0.341711 10:0.142408 11:0.210089 12:0.055161 13:0.011962 14:0.052775 15:0.442399 16:0.687600 17:0.480135 18:0.682067
-9.784702e-001 1:0.300000 2:0.975920 3:0.965073 4:0.077807 5:0.194970 6:0.682999 7:0.232329 8:0.618638 9:0.197605 10:0.366537 11:0.197749 12:0.074668 13:0.017400 14:0.071360 15:0.464729 16:0.393815 17:0.163249 18:0.355101
-8.654934e-001 1:0.700000 2:0.920641 3:0.886917 4:0.374250 5:0.000000 6:0.206862 7:0.151972 8:0.222740 9:0.254862 10:0.052188 11:0.220849 12:0.159715 13:0.048477 14:0.142827 15:0.497172 16:0.003461 17:0.000130 18:0.003675
-6.176982e-001 1:0.800000 2:0.879319 3:0.830335 4:0.108262 5:0.131143 6:0.559387 7:0.292488 8:0.563549 9:0.000000 10:0.023698 11:0.268170 12:0.075178 13:0.017550 14:0.066850 15:0.510899 16:0.081209 17:0.009145 18:0.084851
-1.963452e+000 1:0.200000 2:0.837679 3:0.774915 4:0.671473 5:0.985349 6:0.603152 7:0.327350 8:0.578601 9:0.412195 10:0.207597 11:0.307067 12:0.036749 13:0.007409 14:0.035539 15:0.509346 16:0.025871 17:0.001531 18:0.028194
-1.651905e+000 1:0.300000 2:0.704549 3:0.608464 4:0.473616 5:0.436298 6:0.461538 7:0.229032 8:0.443551 9:0.772803 10:0.212134 11:0.310657 12:0.140867 13:0.040555 14:0.142183 15:0.545971 16:0.293891 17:0.093464 18:0.323185
-1.453256e+000 1:0.200000 2:0.633379 3:0.526191 4:0.456491 5:0.478975 6:0.465471 7:0.242290 8:0.453749 9:0.360170 10:0.231357 11:0.302678 12:0.029082 13:0.005678 14:0.027664 15:0.587324 16:0.046384 17:0.003663 18:0.046999
-8.641328e-001 1:0.300000 2:0.830815 3:0.765932 4:0.569766 5:0.879083 6:0.000000 7:1.000000 8:0.000000 9:0.153087 10:0.682032 11:0.317639 12:0.027116 13:0.005250 14:0.023126 15:0.620875 16:0.000266 17:0.000009 18:0.001183
-5.613719e-001 1:0.800000 2:0.997351 3:0.996132 4:0.304721 5:0.656447 6:0.538584 7:0.586393 8:0.486869 9:0.245878 10:0.000000 11:0.334569 12:0.026338 13:0.005082 14:0.023743 15:0.651221 16:0.270429 17:0.079875 18:0.292353
-1.098498e+000 1:1.000000 2:0.654789 3:0.550449 4:0.125089 5:0.455214 6:0.465339 7:0.563633 8:0.523811 9:0.389516 10:0.026671 11:0.343538 12:0.061774 13:0.013735 14:0.061037 15:0.694347 16:0.042988 17:0.003254 18:0.045890
-1.071227e+000 1:0.650000 2:0.812057 3:0.741607 4:0.662169 5:0.729538 6:0.209619 7:0.512323 8:0.192874 9:0.286629 10:0.358261 11:0.413605 12:0.033193 13:0.006594 14:0.030977 15:0.699085 16:0.537035 17:0.296904 18:0.602250
-1.266048e+000 1:0.700000 2:0.537946 3:0.423211 4:0.749999 5:0.681883 6:0.314035 7:0.306485 8:0.284292 9:0.880533 10:0.311352 11:0.440763 12:0.022126 13:0.004192 14:0.019374 15:0.709068 16:0.028649 17:0.001772 18:0.025426
-6.704972e-001 1:0.800000 2:0.720114 3:0.627080 4:0.883083 5:0.745733 6:0.226605 7:0.287894 8:0.328849 9:0.375000 10:0.267511 11:0.450642 12:0.032504 13:0.006438 14:0.030599 15:0.685685 16:0.243272 17:0.065473 18:0.266210
-2 1:0.700000 2:0.396394 3:0.285950 4:0.562378 5:0.694177 6:0.430802 7:0.356527 8:0.511612 9:0.466933 10:0.162262 11:0.528693 12:0.267178 13:0.104892 14:0.284197 15:0.687501 16:0.089954 17:0.010890 18:0.088747
-4.927128e-001 1:1.000000 2:0.822566 3:0.755196 4:0.483194 5:0.506089 6:0.236651 7:0.485605 8:0.229308 9:0.402595 10:0.522757 11:0.512891 12:0.160673 13:0.048895 14:0.134632 15:0.701936 16:0.037236 17:0.002612 18:0.032580
-6.713869e-001 1:0.900000 2:0.427826 3:0.314831 4:0.779884 5:0.614971 6:0.051006 7:0.383002 8:0.119444 9:0.689548 10:0.265526 11:0.474224 12:0.023868 13:0.004557 14:0.023793 15:0.716171 16:0.096502 17:0.012293 18:0.097914
-1.611285e-001 1:0.800000 2:0.851010 3:0.792484 4:0.568435 5:0.532249 6:0.255777 7:0.304744 8:0.312997 9:0.643877 10:0.262530 11:0.469276 12:0.031730 13:0.006265 14:0.029772 15:0.705346 16:0.021374 17:0.001172 18:0.022758
-7.171096e-001 1:0.300000 2:0.816205 3:0.746959 4:0.608373 5:0.951824 6:0.547351 7:0.532356 8:0.428433 9:0.084715 10:0.462718 11:0.458367 12:0.030341 13:0.005955 14:0.027081 15:0.714692 16:0.068493 17:0.006872 18:0.073329
-2.378902e-002 1:0.500000 2:0.780865 3:0.701879 4:0.708075 5:0.757510 6:0.478189 7:0.227920 8:0.464652 9:0.313094 10:0.344692 11:0.427730 12:0.029131 13:0.005689 14:0.027666 15:0.743743 16:0.059053 17:0.005386 18:0.060697
-7.871632e-001 1:0.600000 2:0.761447 3:0.677601 4:0.981335 5:0.837301 6:0.418890 7:0.057300 8:0.467184 9:0.708691 10:0.545401 11:0.411497 12:0.004623 13:0.000809 14:0.004985 15:0.742249 16:0.000000 17:0.000000 18:0.000000
-2.554315e-001 1:0.600000 2:0.412190 3:0.300350 4:0.946200 5:0.865157 6:0.259630 7:0.318022 8:0.224669 9:0.569716 10:0.757940 11:0.396203 12:0.007011 13:0.001241 14:0.004498 15:0.731929 16:0.008889 17:0.000380 18:0.007761
-9.227934e-001 1:1.000000 2:0.083092 3:0.047924 4:0.492754 5:0.530002 6:0.283417 7:0.310145 8:0.422214 9:0.404987 10:0.206670 11:0.484582 12:0.430942 13:0.227680 14:0.464332 15:0.719122 16:0.092707 17:0.011469 18:0.077794
-1.024065e+000 1:0.900000 2:0.142174 3:0.085878 4:0.014334 5:0.557241 6:0.414531 7:0.851616 8:0.518677 9:0.144125 10:0.163029 11:0.597740 12:0.086461 13:0.020993 14:0.079925 15:0.614178 16:0.646770 17:0.426120 18:0.709352
-2 1:1.000000 2:0.602697 3:0.492167 4:0.530937 5:0.512184 6:0.210820 7:0.367794 8:0.369104 9:0.400608 10:0.285475 11:0.588507 12:0.126429 13:0.034886 14:0.112487 15:0.633369 16:0.102963 17:0.013758 18:0.106832
-2 1:0.900000 2:0.268787 3:0.178064 4:0.276931 5:0.572612 6:0.414525 7:0.509333 8:0.498687 9:0.481136 10:0.275271 11:0.553944 12:0.021657 13:0.004095 14:0.020796 15:0.653827 16:0.108621 17:0.015108 18:0.087739
-2.201649e-001 1:0.900000 2:0.666116 3:0.563455 4:0.512339 5:0.453242 6:0.036969 7:0.371717 8:0.277813 9:0.564892 10:0.101304 11:0.558031 12:0.013466 13:0.002455 14:0.015041 15:0.655543 16:0.123107 17:0.018845 18:0.136532
-1.213728e+000 1:0.850000 2:0.792781 3:0.716950 4:0.729377 5:0.617115 6:0.101105 7:0.414533 8:0.132048 9:0.785798 10:0.289736 11:0.544570 12:0.149784 13:0.044229 14:0.134957 15:0.646774 16:0.150171 17:0.026913 18:0.137555
-1.330616e+000 1:0.600000 2:0.700924 3:0.604160 4:0.664469 5:0.756688 6:0.282542 7:0.489043 8:0.264892 9:0.394067 10:0.752981 11:0.496954 12:0.018673 13:0.003485 14:0.018563 15:0.650074 16:0.034081 17:0.002287 18:0.033797
-1.844161e+000 1:0.500000 2:0.569495 3:0.456325 4:0.339986 5:0.312807 6:0.339069 7:0.394548 8:0.319854 9:0.377178 10:0.365075 11:0.488027 12:0.073541 13:0.017068 14:0.071323 15:0.654864 16:0.128878 17:0.020447 18:0.134654
-1.047705e-001 1:0.600000 2:0.600787 3:0.490077 4:0.411361 5:0.702780 6:0.618581 7:0.563894 8:0.444183 9:0.323901 10:0.299137 11:0.452562 12:0.072767 13:0.016842 14:0.069796 15:0.662634 16:0.046988 17:0.003738 18:0.053104
-9.480310e-001 1:0.600000 2:0.655105 3:0.550811 4:0.560184 5:0.785123 6:0.616198 7:0.384026 8:0.483152 9:0.326045 10:0.604532 11:0.499304 12:0.031238 13:0.006155 14:0.029519 15:0.669677 16:0.072540 17:0.007561 18:0.066049
-3.675172e-001 1:0.500000 2:0.338093 3:0.234794 4:0.427818 5:0.820910 6:0.301566 7:0.694242 8:0.402406 9:0.223002 10:0.571500 11:0.514267 12:0.030726 13:0.006041 14:0.029788 15:0.685807 16:0.031059 17:0.001993 18:0.033426
-4.590384e-001 1:0.500000 2:0.613351 3:0.503882 4:0.623275 5:0.832289 6:0.722043 7:0.459223 8:0.397166 9:0.183388 10:0.573035 11:0.517412 12:0.031245 13:0.006156 14:0.031018 15:0.679815 16:0.067825 17:0.006761 18:0.070363
-1.818082e+000 1:0.500000 2:0.567690 3:0.454405 4:0.407806 5:0.841404 6:0.567046 7:0.591275 8:0.476119 9:0.675552 10:0.229766 11:0.523736 12:0.029811 13:0.005838 14:0.031001 15:0.684050 16:0.065805 17:0.006431 18:0.063818
-9.953531e-001 1:0.450000 2:0.286645 3:0.192258 4:0.898093 5:1.000000 6:0.350369 7:0.278548 8:0.499320 9:0.419560 10:0.508435 11:0.502426 12:0.031368 13:0.006184 14:0.029642 15:0.698017 16:0.120603 17:0.018170 18:0.114178
-3.749265e-001 1:0.500000 2:0.301388 3:0.204198 4:0.628102 5:0.907773 6:0.253178 7:0.623476 8:0.312988 9:0.235068 10:0.734055 11:0.432532 12:0.025191 13:0.004837 14:0.024688 15:0.681917 16:0.297499 17:0.095649 18:0.307933
-1.072889e+000 1:0.500000 2:0.406999 3:0.295592 4:0.743287 5:0.841217 6:0.085863 7:0.582475 8:0.151754 9:0.224774 10:1.000000 11:0.484174 12:0.015852 13:0.002921 14:0.014812 15:0.701606 16:0.678304 17:0.467554 18:0.720840
-9.889599e-001 1:0.500000 2:0.900869 3:0.859647 4:0.591915 5:0.771755 6:0.473656 7:0.359025 8:0.449486 9:0.336771 10:0.128080 11:0.485436 12:0.017094 13:0.003168 14:0.015237 15:0.611764 16:0.144077 17:0.024973 18:0.146592
-7.339650e-001 1:0.300000 2:0.295216 3:0.199175 4:0.481523 5:0.952650 6:0.635741 7:0.478908 8:0.620768 9:0.537914 10:0.021027 11:0.417174 12:0.151565 13:0.044979 14:0.143258 15:0.616221 16:0.228558 17:0.058265 18:0.204828
-9.221027e-002 1:0.400000 2:0.386370 3:0.276931 4:0.786459 5:0.974811 6:0.488235 7:0.497227 8:0.372946 9:0.095965 10:0.545216 11:0.407447 12:0.006156 13:0.001085 14:0.004674 15:0.650537 16:0.229384 17:0.058659 18:0.218130
-1.090490e+000 1:0.700000 2:0.756906 3:0.671972 4:0.195021 5:0.369889 6:0.939562 7:0.000000 8:0.857935 9:0.188959 10:0.287252 11:0.420354 12:0.004240 13:0.000740 14:0.004875 15:0.742703 16:0.079328 17:0.008789 18:0.079147
-4.200567e-001 1:0.700000 2:0.792981 3:0.717205 4:0.882204 5:0.661092 6:0.250761 7:0.118288 8:0.391518 9:0.621535 10:0.314654 11:0.425795 12:0.011431 13:0.002064 14:0.010185 15:0.767609 16:0.079229 17:0.008770 18:0.077782
-5.772342e-002 1:0.500000 2:0.624351 3:0.516090 4:0.535493 5:0.795356 6:0.226042 7:0.670144 8:0.237940 9:0.161971 10:0.277713 11:0.419387 12:0.010691 13:0.001924 14:0.009956 15:0.785732 16:0.091746 17:0.011265 18:0.090791
-1.954294e-001 1:0.700000 2:0.335845 3:0.232884 4:0.793047 5:0.767108 6:0.471294 7:0.107283 8:0.497784 9:0.679993 10:0.619811 11:0.389901 12:0.005613 13:0.000987 14:0.007299 15:0.909851 16:0.063570 17:0.006076 18:0.063714
-2.548368e-001 1:0.500000 2:0.519505 3:0.404281 4:0.678390 5:0.851725 6:0.709991 7:0.187928 8:0.642114 9:0.506674 10:0.553662 11:0.384510 12:0.139151 13:0.039863 14:0.130133 15:1.000000 16:0.016397 17:0.000820 18:0.013408
-5.348928e-001 1:0.600000 2:0.600305 3:0.489550 4:1.000000 5:0.765341 6:0.187851 7:0.106351 8:0.277543 9:0.560845 10:0.683024 11:0.416999 12:0.029601 13:0.005792 14:0.028963 15:0.983003 16:0.245521 17:0.066612 18:0.248146
